columns = ['Age', 'Weight (kg)', 'Height (m)', 'Max_BPM', 'Resting_BPM', 'Session_Duration (hours)', 'Calories_Burned', 'Water_Intake (liters)', 'Sleep_Hours', 'Gender_Female', 'Gender_Male', 'Workout_Type_Cardio', 'Workout_Type_HIIT', 'Workout_Type_Strength', 'Workout_Type_Yoga']

def score(input):
    if input[7] <= 1.550000011920929:
        if input[8] <= 7.599999904632568:
            if input[2] <= 1.7699999809265137:
                var0 = 141.9189189189189
            else:
                var0 = 131.8235294117647
        else:
            if input[1] <= 68.8499984741211:
                var0 = 139.57142857142858
            else:
                var0 = 156.44444444444446
    else:
        if input[1] <= 108.79999923706055:
            if input[5] <= 1.5049999952316284:
                var0 = 144.8617401668653
            else:
                var0 = 148.58333333333334
        else:
            if input[5] <= 1.3199999928474426:
                var0 = 148.2
            else:
                var0 = 161.72727272727272
    if input[4] <= 64.5:
        if input[3] <= 167.5:
            if input[5] <= 1.0:
                var1 = 164.4375
            else:
                var1 = 151.17045454545453
        else:
            if input[8] <= 4.3500001430511475:
                var1 = 154.70212765957447
            else:
                var1 = 146.1143375680581
    else:
        if input[2] <= 1.715000033378601:
            if input[13] <= 0.5:
                var1 = 147.75471698113208
            else:
                var1 = 140.96428571428572
        else:
            if input[3] <= 164.5:
                var1 = 153.3
            else:
                var1 = 140.64809384164224
    if input[6] <= 1244.0:
        if input[4] <= 67.5:
            if input[6] <= 1222.0:
                var2 = 147.35262206148283
            else:
                var2 = 132.5
        else:
            if input[2] <= 1.8049999475479126:
                var2 = 140.88555858310627
            else:
                var2 = 147.26415094339623
    else:
        if input[2] <= 1.625:
            if input[6] <= 1294.5:
                var2 = 163.38888888888889
            else:
                var2 = 155.05555555555554
        else:
            if input[6] <= 1749.0:
                var2 = 149.1596638655462
            else:
                var2 = 138.76
    if input[1] <= 43.95000076293945:
        if input[5] <= 0.7549999952316284:
            var3 = 126.1875
        else:
            if input[4] <= 54.5:
                var3 = 133.5
            else:
                var3 = 144.10687022900763
    else:
        if input[6] <= 432.5:
            if input[1] <= 65.89999771118164:
                var3 = 143.9375
            else:
                var3 = 130.44444444444446
        else:
            if input[7] <= 1.550000011920929:
                var3 = 141.90721649484536
            else:
                var3 = 147.3164918970448
    if input[3] <= 165.5:
        if input[8] <= 6.450000047683716:
            if input[6] <= 545.0:
                var4 = 131.14285714285714
            else:
                var4 = 147.35
        else:
            if input[6] <= 1337.0:
                var4 = 153.0
            else:
                var4 = 163.88235294117646
    else:
        if input[6] <= 1702.0:
            if input[8] <= 6.25:
                var4 = 147.95992366412213
            else:
                var4 = 144.25040650406504
        else:
            if input[5] <= 1.5400000214576721:
                var4 = 128.8181818181818
            else:
                var4 = 149.73684210526315
    if input[3] <= 182.5:
        if input[1] <= 100.64999771118164:
            if input[6] <= 528.5:
                var5 = 139.4255319148936
            else:
                var5 = 148.34749620637328
        else:
            if input[3] <= 164.5:
                var5 = 164.58333333333334
            else:
                var5 = 153.0
    else:
        if input[5] <= 1.1449999809265137:
            if input[6] <= 913.0:
                var5 = 147.16129032258064
            else:
                var5 = 137.24752475247524
        else:
            if input[7] <= 1.550000011920929:
                var5 = 139.10638297872342
            else:
                var5 = 146.34739454094293
    if input[6] <= 409.5:
        if input[0] <= 42.5:
            if input[6] <= 337.5:
                var6 = 149.6
            else:
                var6 = 135.9
        else:
            var6 = 126.0
    else:
        if input[3] <= 167.5:
            if input[7] <= 2.25:
                var6 = 145.3148148148148
            else:
                var6 = 152.87700534759358
        else:
            if input[4] <= 67.5:
                var6 = 147.80745341614906
            else:
                var6 = 144.32054176072234
    if input[7] <= 1.550000011920929:
        if input[6] <= 453.0:
            var7 = 124.0
        else:
            if input[1] <= 68.20000076293945:
                var7 = 137.96428571428572
            else:
                var7 = 146.78333333333333
    else:
        if input[5] <= 0.7649999856948853:
            if input[9] <= 0.5:
                var7 = 134.2962962962963
            else:
                var7 = 145.61904761904762
        else:
            if input[5] <= 0.8449999988079071:
                var7 = 158.08
            else:
                var7 = 146.71662360034452
    if input[3] <= 182.5:
        if input[6] <= 933.5:
            if input[1] <= 82.54999923706055:
                var8 = 143.2415458937198
            else:
                var8 = 149.66666666666666
        else:
            if input[6] <= 989.0:
                var8 = 157.30612244897958
            else:
                var8 = 148.0334928229665
    else:
        if input[0] <= 48.5:
            if input[6] <= 409.5:
                var8 = 128.69230769230768
            else:
                var8 = 143.17102615694165
        else:
            if input[6] <= 1193.0:
                var8 = 146.3783783783784
            else:
                var8 = 158.96153846153845
    if input[2] <= 1.6549999713897705:
        if input[6] <= 1093.5:
            if input[1] <= 52.10000038146973:
                var9 = 153.01960784313727
            else:
                var9 = 145.06756756756758
        else:
            if input[1] <= 75.19999694824219:
                var9 = 154.4494382022472
            else:
                var9 = 149.01666666666668
    else:
        if input[3] <= 182.5:
            if input[1] <= 52.05000114440918:
                var9 = 141.89261744966444
            else:
                var9 = 147.83042394014961
        else:
            if input[5] <= 1.5549999475479126:
                var9 = 139.5701219512195
            else:
                var9 = 146.1954887218045
    if input[6] <= 576.5:
        if input[1] <= 42.64999961853027:
            if input[5] <= 1.1800000071525574:
                var10 = 134.0
            else:
                var10 = 126.625
        else:
            if input[2] <= 1.8149999976158142:
                var10 = 138.11111111111111
            else:
                var10 = 147.52631578947367
    else:
        if input[7] <= 1.6500000357627869:
            if input[8] <= 6.1499998569488525:
                var10 = 147.4
            else:
                var10 = 139.54545454545453
        else:
            if input[1] <= 40.54999923706055:
                var10 = 142.8469387755102
            else:
                var10 = 148.1922695738355
    if input[4] <= 71.5:
        if input[3] <= 196.5:
            if input[6] <= 1462.5:
                var11 = 146.9775147928994
            else:
                var11 = 152.1089108910891
        else:
            if input[13] <= 0.5:
                var11 = 144.04
            else:
                var11 = 133.0625
    else:
        if input[3] <= 167.5:
            if input[5] <= 1.3550000190734863:
                var11 = 159.85714285714286
            else:
                var11 = 143.70731707317074
        else:
            if input[5] <= 1.5699999928474426:
                var11 = 139.04145077720207
            else:
                var11 = 146.91304347826087
    if input[7] <= 1.550000011920929:
        if input[5] <= 1.4049999713897705:
            if input[3] <= 195.0:
                var12 = 148.74358974358975
            else:
                var12 = 127.8
        else:
            if input[6] <= 877.5:
                var12 = 129.2962962962963
            else:
                var12 = 141.84375
    else:
        if input[5] <= 0.7350000143051147:
            if input[4] <= 58.0:
                var12 = 152.5
            else:
                var12 = 133.69565217391303
        else:
            if input[8] <= 4.25:
                var12 = 152.56603773584905
            else:
                var12 = 146.27636054421768
    if input[7] <= 2.149999976158142:
        if input[8] <= 4.3500001430511475:
            if input[1] <= 77.89999771118164:
                var13 = 144.05
            else:
                var13 = 159.8235294117647
        else:
            if input[8] <= 4.6499998569488525:
                var13 = 131.0625
            else:
                var13 = 142.50751879699249
    else:
        if input[3] <= 182.5:
            if input[8] <= 4.3500001430511475:
                var13 = 156.2972972972973
            else:
                var13 = 147.67652859960552
        else:
            if input[5] <= 1.5549999475479126:
                var13 = 143.07079646017698
            else:
                var13 = 149.53191489361703
    if input[6] <= 702.0:
        if input[1] <= 98.20000076293945:
            if input[1] <= 77.5999984741211:
                var14 = 144.26119402985074
            else:
                var14 = 135.76923076923077
        else:
            if input[13] <= 0.5:
                var14 = 163.0
            else:
                var14 = 143.57142857142858
    else:
        if input[6] <= 784.5:
            if input[3] <= 185.5:
                var14 = 146.93939393939394
            else:
                var14 = 159.61363636363637
        else:
            if input[5] <= 1.225000023841858:
                var14 = 144.84699453551912
            else:
                var14 = 147.8181818181818
    if input[6] <= 576.5:
        if input[1] <= 100.35000228881836:
            if input[2] <= 1.6649999618530273:
                var15 = 147.08
            else:
                var15 = 137.53932584269663
        else:
            var15 = 153.36363636363637
    else:
        if input[6] <= 607.0:
            if input[3] <= 182.0:
                var15 = 151.0
            else:
                var15 = 164.78571428571428
        else:
            if input[4] <= 71.5:
                var15 = 147.09052183173588
            else:
                var15 = 143.5056179775281
    if input[4] <= 64.5:
        if input[1] <= 69.54999923706055:
            if input[3] <= 192.5:
                var16 = 146.5015873015873
            else:
                var16 = 139.69354838709677
        else:
            if input[1] <= 69.95000076293945:
                var16 = 165.6
            else:
                var16 = 149.68037974683546
    else:
        if input[8] <= 4.25:
            if input[0] <= 29.5:
                var16 = 161.45454545454547
            else:
                var16 = 147.0
        else:
            if input[8] <= 7.25:
                var16 = 141.45864661654136
            else:
                var16 = 145.32618025751074
    if input[3] <= 182.5:
        if input[7] <= 1.75:
            if input[6] <= 1295.0:
                var17 = 145.32142857142858
            else:
                var17 = 134.0
        else:
            if input[1] <= 48.30000114440918:
                var17 = 144.9927536231884
            else:
                var17 = 150.39641434262947
    else:
        if input[7] <= 1.550000011920929:
            if input[0] <= 34.5:
                var17 = 140.69565217391303
            else:
                var17 = 131.66666666666666
        else:
            if input[5] <= 1.4550000429153442:
                var17 = 142.40974212034385
            else:
                var17 = 148.27314814814815
    if input[3] <= 182.5:
        if input[2] <= 1.725000023841858:
            if input[1] <= 99.25:
                var18 = 150.31767955801104
            else:
                var18 = 162.26923076923077
        else:
            if input[5] <= 1.8550000190734863:
                var18 = 144.69300911854103
            else:
                var18 = 152.23636363636365
    else:
        if input[8] <= 4.1499998569488525:
            if input[14] <= 0.5:
                var18 = 150.6
            else:
                var18 = 169.0
        else:
            if input[1] <= 84.64999771118164:
                var18 = 142.87396694214877
            else:
                var18 = 148.21505376344086
    if input[1] <= 99.0:
        if input[5] <= 1.534999966621399:
            if input[2] <= 1.715000033378601:
                var19 = 147.1262886597938
            else:
                var19 = 141.85480572597137
        else:
            if input[8] <= 7.950000047683716:
                var19 = 150.21241830065358
            else:
                var19 = 139.52380952380952
    else:
        if input[8] <= 7.6499998569488525:
            if input[3] <= 187.5:
                var19 = 153.09302325581396
            else:
                var19 = 139.21052631578948
        else:
            if input[8] <= 8.550000190734863:
                var19 = 162.24
            else:
                var19 = 145.6
    if input[3] <= 182.5:
        if input[1] <= 99.0:
            if input[14] <= 0.5:
                var20 = 146.17731958762886
            else:
                var20 = 150.71186440677965
        else:
            if input[1] <= 112.8499984741211:
                var20 = 159.1891891891892
            else:
                var20 = 146.46153846153845
    else:
        if input[8] <= 8.849999904632568:
            if input[6] <= 428.5:
                var20 = 130.88888888888889
            else:
                var20 = 144.86106623586429
        else:
            var20 = 125.6
    if input[6] <= 528.5:
        if input[3] <= 161.5:
            var21 = 153.6
        else:
            if input[3] <= 190.5:
                var21 = 132.8490566037736
            else:
                var21 = 143.75
    else:
        if input[3] <= 165.5:
            if input[7] <= 3.450000047683716:
                var21 = 148.6969696969697
            else:
                var21 = 158.3
        else:
            if input[8] <= 6.1499998569488525:
                var21 = 147.64008620689654
            else:
                var21 = 143.70992366412213
    if input[7] <= 1.550000011920929:
        if input[5] <= 1.4450000524520874:
            if input[8] <= 6.299999952316284:
                var22 = 154.82608695652175
            else:
                var22 = 137.17857142857142
        else:
            if input[13] <= 0.5:
                var22 = 131.3953488372093
            else:
                var22 = 153.42857142857142
    else:
        if input[4] <= 58.5:
            if input[2] <= 1.5449999570846558:
                var22 = 141.62857142857143
            else:
                var22 = 149.23762376237624
        else:
            if input[3] <= 171.5:
                var22 = 148.1727272727273
            else:
                var22 = 143.6110183639399
    if input[3] <= 182.5:
        if input[4] <= 67.5:
            if input[5] <= 0.8499999940395355:
                var23 = 157.23076923076923
            else:
                var23 = 148.883295194508
        else:
            if input[2] <= 1.6549999713897705:
                var23 = 150.30337078651687
            else:
                var23 = 143.99574468085106
    else:
        if input[8] <= 7.8500001430511475:
            if input[1] <= 63.14999961853027:
                var23 = 143.16585365853658
            else:
                var23 = 147.8640350877193
        else:
            if input[2] <= 1.9049999713897705:
                var23 = 138.2983870967742
            else:
                var23 = 156.8
    if input[3] <= 178.5:
        if input[8] <= 6.25:
            if input[1] <= 74.94999694824219:
                var24 = 152.9731182795699
            else:
                var24 = 146.0252100840336
        else:
            if input[3] <= 165.5:
                var24 = 151.1604938271605
            else:
                var24 = 143.8808510638298
    else:
        if input[7] <= 1.550000011920929:
            if input[8] <= 4.549999952316284:
                var24 = 149.5
            else:
                var24 = 134.0
        else:
            if input[5] <= 1.475000023841858:
                var24 = 143.07600950118766
            else:
                var24 = 147.50597609561754
    if input[4] <= 63.5:
        if input[1] <= 65.54999923706055:
            if input[6] <= 1360.5:
                var25 = 143.81176470588235
            else:
                var25 = 150.94545454545454
        else:
            if input[5] <= 1.6549999713897705:
                var25 = 147.91512915129152
            else:
                var25 = 155.46478873239437
    else:
        if input[3] <= 182.5:
            if input[6] <= 1623.5:
                var25 = 146.336
            else:
                var25 = 130.64285714285714
        else:
            if input[2] <= 1.6050000190734863:
                var25 = 147.52272727272728
            else:
                var25 = 139.94160583941607
    var26 = var0 + var1 + var2 + var3 + var4 + var5 + var6 + var7 + var8 + var9 + var10 + var11 + var12 + var13 + var14 + var15 + var16 + var17 + var18 + var19 + var20 + var21 + var22 + var23 + var24 + var25
    if input[3] <= 182.5:
        if input[5] <= 0.9150000214576721:
            if input[7] <= 2.950000047683716:
                var27 = 160.61111111111111
            else:
                var27 = 146.58333333333334
        else:
            if input[5] <= 1.0549999475479126:
                var27 = 141.05357142857142
            else:
                var27 = 148.06976744186048
    else:
        if input[5] <= 1.4550000429153442:
            if input[4] <= 67.5:
                var27 = 144.10747663551402
            else:
                var27 = 138.73033707865167
        else:
            if input[7] <= 1.550000011920929:
                var27 = 134.82758620689654
            else:
                var27 = 148.45909090909092
    if input[3] <= 182.5:
        if input[6] <= 700.5:
            if input[1] <= 98.20000076293945:
                var28 = 140.79439252336448
            else:
                var28 = 159.33333333333334
        else:
            if input[0] <= 18.5:
                var28 = 154.62820512820514
            else:
                var28 = 147.242700729927
    else:
        if input[7] <= 1.550000011920929:
            if input[8] <= 8.599999904632568:
                var28 = 133.8372093023256
            else:
                var28 = 150.25
        else:
            if input[2] <= 1.8550000190734863:
                var28 = 145.4503311258278
            else:
                var28 = 140.02803738317758
    if input[6] <= 426.5:
        if input[5] <= 1.3949999809265137:
            if input[3] <= 180.0:
                var29 = 124.88888888888889
            else:
                var29 = 132.0
        else:
            if input[6] <= 334.0:
                var29 = 147.83333333333334
            else:
                var29 = 138.66666666666666
    else:
        if input[3] <= 185.5:
            if input[4] <= 67.5:
                var29 = 148.92730844793712
            else:
                var29 = 145.14156626506025
        else:
            if input[1] <= 59.75:
                var29 = 141.3575129533679
            else:
                var29 = 146.0949152542373
    if input[7] <= 1.550000011920929:
        if input[5] <= 1.4049999713897705:
            if input[5] <= 1.125:
                var30 = 134.92
            else:
                var30 = 155.38709677419354
        else:
            if input[6] <= 1540.0:
                var30 = 132.80769230769232
            else:
                var30 = 151.83333333333334
    else:
        if input[3] <= 166.5:
            if input[8] <= 6.450000047683716:
                var30 = 145.64601769911505
            else:
                var30 = 154.97701149425288
        else:
            if input[8] <= 6.1499998569488525:
                var30 = 147.98086124401914
            else:
                var30 = 144.21630615640598
    if input[3] <= 171.5:
        if input[12] <= 0.5:
            if input[5] <= 1.284999966621399:
                var31 = 154.2755905511811
            else:
                var31 = 147.54970760233917
        else:
            if input[4] <= 68.5:
                var31 = 145.90243902439025
            else:
                var31 = 135.9090909090909
    else:
        if input[4] <= 65.5:
            if input[1] <= 106.0:
                var31 = 146.63809523809525
            else:
                var31 = 133.35
        else:
            if input[5] <= 1.5449999570846558:
                var31 = 141.006309148265
            else:
                var31 = 147.26470588235293
    if input[2] <= 1.7450000047683716:
        if input[3] <= 174.5:
            if input[6] <= 763.0:
                var32 = 142.3090909090909
            else:
                var32 = 153.34285714285716
        else:
            if input[5] <= 1.9049999713897705:
                var32 = 145.69268292682926
            else:
                var32 = 151.82716049382717
    else:
        if input[6] <= 501.0:
            if input[12] <= 0.5:
                var32 = 136.36666666666667
            else:
                var32 = 124.78571428571429
        else:
            if input[6] <= 1763.5:
                var32 = 144.81272727272727
            else:
                var32 = 124.22222222222223
    if input[4] <= 64.5:
        if input[7] <= 1.550000011920929:
            if input[2] <= 1.899999976158142:
                var33 = 137.35185185185185
            else:
                var33 = 156.875
        else:
            if input[5] <= 0.8550000190734863:
                var33 = 155.97368421052633
            else:
                var33 = 148.49355432780848
    else:
        if input[3] <= 183.5:
            if input[1] <= 98.20000076293945:
                var33 = 145.18015665796344
            else:
                var33 = 154.64705882352942
        else:
            if input[5] <= 1.3650000095367432:
                var33 = 138.2207792207792
            else:
                var33 = 144.33793103448275
    if input[3] <= 165.5:
        if input[6] <= 534.5:
            if input[9] <= 0.5:
                var34 = 146.0
            else:
                var34 = 128.5
        else:
            if input[4] <= 67.5:
                var34 = 148.46601941747574
            else:
                var34 = 155.3827160493827
    else:
        if input[6] <= 409.5:
            if input[14] <= 0.5:
                var34 = 129.33333333333334
            else:
                var34 = 150.33333333333334
        else:
            if input[8] <= 5.25:
                var34 = 148.19266055045873
            else:
                var34 = 144.82512315270935
    if input[1] <= 82.85000228881836:
        if input[4] <= 64.5:
            if input[8] <= 4.3500001430511475:
                var35 = 156.88095238095238
            else:
                var35 = 146.83443708609272
        else:
            if input[5] <= 1.4950000047683716:
                var35 = 140.9756756756757
            else:
                var35 = 146.79396984924622
    else:
        if input[7] <= 2.049999952316284:
            if input[6] <= 1277.5:
                var35 = 140.83928571428572
            else:
                var35 = 155.85714285714286
        else:
            if input[4] <= 52.5:
                var35 = 141.95652173913044
            else:
                var35 = 152.80693069306932
    if input[3] <= 166.5:
        if input[10] <= 0.5:
            if input[12] <= 0.5:
                var36 = 156.71621621621622
            else:
                var36 = 146.94736842105263
        else:
            if input[3] <= 160.5:
                var36 = 135.22222222222223
            else:
                var36 = 149.8265306122449
    else:
        if input[1] <= 40.55000114440918:
            if input[12] <= 0.5:
                var36 = 138.6265060240964
            else:
                var36 = 149.08333333333334
        else:
            if input[2] <= 1.9350000023841858:
                var36 = 146.4477766287487
            else:
                var36 = 140.87058823529412
    if input[4] <= 64.5:
        if input[8] <= 4.3500001430511475:
            if input[4] <= 60.5:
                var37 = 154.30555555555554
            else:
                var37 = 165.64285714285714
        else:
            if input[1] <= 46.54999923706055:
                var37 = 141.26966292134833
            else:
                var37 = 148.3544776119403
    else:
        if input[12] <= 0.5:
            if input[3] <= 170.5:
                var37 = 149.49367088607596
            else:
                var37 = 143.45
        else:
            if input[5] <= 0.7049999833106995:
                var37 = 126.6
            else:
                var37 = 141.0965909090909
    if input[6] <= 432.5:
        if input[6] <= 324.0:
            if input[13] <= 0.5:
                var38 = 143.2
            else:
                var38 = 152.16666666666666
        else:
            if input[7] <= 2.25:
                var38 = 120.85714285714286
            else:
                var38 = 131.85714285714286
    else:
        if input[4] <= 66.5:
            if input[7] <= 1.550000011920929:
                var38 = 141.1290322580645
            else:
                var38 = 149.17371601208458
        else:
            if input[3] <= 192.5:
                var38 = 146.44444444444446
            else:
                var38 = 141.2962962962963
    if input[6] <= 531.0:
        if input[3] <= 161.5:
            var39 = 153.875
        else:
            if input[8] <= 7.599999904632568:
                var39 = 138.61363636363637
            else:
                var39 = 127.94117647058823
    else:
        if input[3] <= 165.5:
            if input[3] <= 163.5:
                var39 = 148.0873786407767
            else:
                var39 = 154.57831325301206
        else:
            if input[5] <= 1.5449999570846558:
                var39 = 144.96525096525096
            else:
                var39 = 148.61467889908258
    if input[3] <= 171.5:
        if input[1] <= 98.95000076293945:
            if input[6] <= 531.5:
                var40 = 136.94444444444446
            else:
                var40 = 149.6867816091954
        else:
            if input[8] <= 6.1499998569488525:
                var40 = 165.33333333333334
            else:
                var40 = 156.23809523809524
    else:
        if input[4] <= 64.5:
            if input[6] <= 584.5:
                var40 = 140.4
            else:
                var40 = 148.52164948453608
        else:
            if input[5] <= 1.5449999570846558:
                var40 = 141.17013888888889
            else:
                var40 = 147.6122448979592
    if input[3] <= 166.5:
        if input[7] <= 3.450000047683716:
            if input[8] <= 7.450000047683716:
                var41 = 147.2923076923077
            else:
                var41 = 154.94871794871796
        else:
            if input[14] <= 0.5:
                var41 = 164.35
            else:
                var41 = 146.11111111111111
    else:
        if input[8] <= 6.049999952316284:
            if input[5] <= 1.5449999570846558:
                var41 = 145.83492063492062
            else:
                var41 = 150.98
        else:
            if input[0] <= 51.5:
                var41 = 142.7207062600321
            else:
                var41 = 148.93150684931507
    if input[6] <= 432.5:
        if input[8] <= 6.6499998569488525:
            if input[7] <= 2.25:
                var42 = 120.18181818181819
            else:
                var42 = 130.77777777777777
        else:
            if input[8] <= 7.0:
                var42 = 152.14285714285714
            else:
                var42 = 131.77777777777777
    else:
        if input[6] <= 1244.5:
            if input[5] <= 1.5049999952316284:
                var42 = 144.14328808446456
            else:
                var42 = 148.13291139240508
        else:
            if input[6] <= 1563.5:
                var42 = 151.14615384615385
            else:
                var42 = 144.27380952380952
    if input[1] <= 108.79999923706055:
        if input[8] <= 6.25:
            if input[12] <= 0.5:
                var43 = 148.7008547008547
            else:
                var43 = 142.704
        else:
            if input[2] <= 1.7450000047683716:
                var43 = 146.63342318059298
            else:
                var43 = 141.59490084985836
    else:
        if input[0] <= 20.0:
            var43 = 167.75
        else:
            if input[4] <= 58.5:
                var43 = 145.58333333333334
            else:
                var43 = 156.13636363636363
    if input[6] <= 528.5:
        if input[11] <= 0.5:
            if input[8] <= 4.5:
                var44 = 123.33333333333333
            else:
                var44 = 138.12727272727273
        else:
            var44 = 148.46153846153845
    else:
        if input[8] <= 4.3500001430511475:
            if input[6] <= 829.5:
                var44 = 140.6818181818182
            else:
                var44 = 156.55555555555554
        else:
            if input[1] <= 46.60000038146973:
                var44 = 142.99468085106383
            else:
                var44 = 146.91396761133603
    if input[3] <= 182.5:
        if input[4] <= 64.5:
            if input[8] <= 4.3500001430511475:
                var45 = 160.42857142857142
            else:
                var45 = 149.56473829201101
        else:
            if input[5] <= 0.8650000095367432:
                var45 = 130.6875
            else:
                var45 = 146.49704142011834
    else:
        if input[6] <= 556.0:
            if input[5] <= 1.574999988079071:
                var45 = 130.12121212121212
            else:
                var45 = 144.2
        else:
            if input[4] <= 65.5:
                var45 = 146.1273291925466
            else:
                var45 = 142.1606425702811
    if input[3] <= 165.5:
        if input[8] <= 8.050000190734863:
            if input[8] <= 7.6499998569488525:
                var46 = 150.0888888888889
            else:
                var46 = 137.8421052631579
        else:
            if input[1] <= 55.79999923706055:
                var46 = 144.83333333333334
            else:
                var46 = 168.26666666666668
    else:
        if input[1] <= 69.35000228881836:
            if input[6] <= 942.0:
                var46 = 141.0631970260223
            else:
                var46 = 145.13863636363635
        else:
            if input[2] <= 1.5149999856948853:
                var46 = 159.23076923076923
            else:
                var46 = 146.26726057906458
    if input[3] <= 165.5:
        if input[8] <= 4.950000047683716:
            if input[8] <= 4.549999952316284:
                var47 = 150.19230769230768
            else:
                var47 = 138.3181818181818
        else:
            if input[1] <= 83.1500015258789:
                var47 = 151.07766990291262
            else:
                var47 = 159.1875
    else:
        if input[4] <= 67.5:
            if input[10] <= 0.5:
                var47 = 148.96045197740114
            else:
                var47 = 144.45294117647057
        else:
            if input[1] <= 46.94999885559082:
                var47 = 138.72222222222223
            else:
                var47 = 144.30102040816325
    if input[3] <= 182.5:
        if input[2] <= 1.9350000023841858:
            if input[6] <= 1727.5:
                var48 = 148.3997175141243
            else:
                var48 = 159.33333333333334
        else:
            if input[13] <= 0.5:
                var48 = 135.5483870967742
            else:
                var48 = 150.35714285714286
    else:
        if input[8] <= 4.1499998569488525:
            if input[3] <= 191.5:
                var48 = 150.45454545454547
            else:
                var48 = 167.75
        else:
            if input[1] <= 82.85000228881836:
                var48 = 142.70601336302894
            else:
                var48 = 149.48717948717947
    if input[4] <= 64.5:
        if input[6] <= 1727.5:
            if input[1] <= 40.20000076293945:
                var49 = 154.48979591836735
            else:
                var49 = 147.3293918918919
        else:
            if input[8] <= 8.150000095367432:
                var49 = 162.32142857142858
            else:
                var49 = 143.85714285714286
    else:
        if input[3] <= 166.5:
            if input[7] <= 1.6500000357627869:
                var49 = 131.55555555555554
            else:
                var49 = 151.35714285714286
        else:
            if input[3] <= 196.5:
                var49 = 144.1731123388582
            else:
                var49 = 137.4468085106383
    if input[8] <= 4.25:
        if input[6] <= 1388.5:
            if input[6] <= 860.0:
                var50 = 142.1
            else:
                var50 = 160.24444444444444
        else:
            var50 = 140.22222222222223
    else:
        if input[10] <= 0.5:
            if input[4] <= 65.5:
                var50 = 149.8936877076412
            else:
                var50 = 145.5137614678899
        else:
            if input[7] <= 1.75:
                var50 = 138.247311827957
            else:
                var50 = 145.45644599303137
    if input[7] <= 1.550000011920929:
        if input[2] <= 1.5299999713897705:
            var51 = 159.0
        else:
            if input[2] <= 1.899999976158142:
                var51 = 136.16091954022988
            else:
                var51 = 149.58823529411765
    else:
        if input[5] <= 1.5449999570846558:
            if input[4] <= 64.5:
                var51 = 147.440097799511
            else:
                var51 = 143.87339055793993
        else:
            if input[7] <= 1.75:
                var51 = 162.93333333333334
            else:
                var51 = 148.8240223463687
    if input[3] <= 182.5:
        if input[1] <= 46.64999961853027:
            if input[0] <= 36.5:
                var52 = 138.77777777777777
            else:
                var52 = 150.2
        else:
            if input[4] <= 70.5:
                var52 = 149.5609756097561
            else:
                var52 = 145.1767955801105
    else:
        if input[5] <= 1.4850000143051147:
            if input[4] <= 67.5:
                var52 = 144.80786026200875
            else:
                var52 = 136.78787878787878
        else:
            if input[7] <= 1.6500000357627869:
                var52 = 135.8235294117647
            else:
                var52 = 149.6868131868132
    if input[2] <= 1.715000033378601:
        if input[6] <= 999.5:
            if input[2] <= 1.7050000429153442:
                var53 = 144.53658536585365
            else:
                var53 = 157.44
        else:
            if input[0] <= 20.5:
                var53 = 142.94
            else:
                var53 = 151.96785714285716
    else:
        if input[6] <= 1763.5:
            if input[5] <= 1.9950000047683716:
                var53 = 144.0134529147982
            else:
                var53 = 150.36764705882354
        else:
            if input[8] <= 7.849999904632568:
                var53 = 139.33333333333334
            else:
                var53 = 124.91666666666667
    if input[3] <= 170.5:
        if input[1] <= 98.3499984741211:
            if input[2] <= 1.6749999523162842:
                var54 = 151.4406779661017
            else:
                var54 = 146.55411255411255
        else:
            if input[6] <= 1021.5:
                var54 = 164.8
            else:
                var54 = 153.33333333333334
    else:
        if input[5] <= 1.1050000190734863:
            if input[0] <= 40.5:
                var54 = 138.96688741721854
            else:
                var54 = 146.1747572815534
        else:
            if input[6] <= 409.5:
                var54 = 134.05263157894737
            else:
                var54 = 146.74825174825176
    if input[6] <= 576.5:
        if input[8] <= 4.5:
            if input[6] <= 471.5:
                var55 = 123.2
            else:
                var55 = 130.28571428571428
        else:
            if input[8] <= 7.549999952316284:
                var55 = 144.09615384615384
            else:
                var55 = 133.1875
    else:
        if input[1] <= 77.85000228881836:
            if input[7] <= 1.550000011920929:
                var55 = 138.97530864197532
            else:
                var55 = 145.72392638036808
        else:
            if input[8] <= 8.550000190734863:
                var55 = 151.11926605504587
            else:
                var55 = 140.62857142857143
    if input[3] <= 182.5:
        if input[8] <= 4.3500001430511475:
            if input[5] <= 1.0550000071525574:
                var56 = 139.4
            else:
                var56 = 157.51111111111112
        else:
            if input[6] <= 1534.5:
                var56 = 146.8690851735016
            else:
                var56 = 141.04615384615386
    else:
        if input[4] <= 67.5:
            if input[2] <= 1.9850000143051147:
                var56 = 145.54437869822485
            else:
                var56 = 136.04166666666666
        else:
            if input[0] <= 53.5:
                var56 = 139.61333333333334
            else:
                var56 = 154.33333333333334
    if input[6] <= 1331.5:
        if input[4] <= 63.5:
            if input[4] <= 54.5:
                var57 = 143.92857142857142
            else:
                var57 = 149.32439678284183
        else:
            if input[7] <= 1.550000011920929:
                var57 = 136.1304347826087
            else:
                var57 = 144.48368522072937
    else:
        if input[6] <= 1579.0:
            if input[3] <= 191.5:
                var57 = 155.0
            else:
                var57 = 144.77777777777777
        else:
            if input[0] <= 30.5:
                var57 = 139.2051282051282
            else:
                var57 = 150.61702127659575
    if input[6] <= 555.0:
        if input[6] <= 338.5:
            if input[4] <= 58.5:
                var58 = 139.28571428571428
            else:
                var58 = 158.16666666666666
        else:
            if input[1] <= 100.54999923706055:
                var58 = 135.92
            else:
                var58 = 150.71428571428572
    else:
        if input[7] <= 1.550000011920929:
            if input[4] <= 58.5:
                var58 = 133.72727272727272
            else:
                var58 = 145.17391304347825
        else:
            if input[3] <= 165.5:
                var58 = 150.88023952095807
            else:
                var58 = 146.39532520325204
    if input[3] <= 185.5:
        if input[2] <= 1.6549999713897705:
            if input[6] <= 1067.0:
                var59 = 147.67924528301887
            else:
                var59 = 154.8840579710145
        else:
            if input[7] <= 2.049999952316284:
                var59 = 142.89655172413794
            else:
                var59 = 147.8181818181818
    else:
        if input[1] <= 73.25:
            if input[5] <= 1.9850000143051147:
                var59 = 140.62890625
            else:
                var59 = 147.71929824561403
        else:
            if input[3] <= 186.5:
                var59 = 133.76923076923077
            else:
                var59 = 148.07602339181287
    if input[3] <= 167.5:
        if input[8] <= 7.450000047683716:
            if input[11] <= 0.5:
                var60 = 144.10526315789474
            else:
                var60 = 152.91228070175438
        else:
            if input[6] <= 1361.5:
                var60 = 151.77586206896552
            else:
                var60 = 165.57142857142858
    else:
        if input[5] <= 1.5449999570846558:
            if input[6] <= 532.5:
                var60 = 136.56410256410257
            else:
                var60 = 144.06951871657753
        else:
            if input[8] <= 6.049999952316284:
                var60 = 151.22834645669292
            else:
                var60 = 144.98907103825135
    if input[3] <= 182.5:
        if input[1] <= 98.1500015258789:
            if input[6] <= 1598.0:
                var61 = 147.57416267942583
            else:
                var61 = 138.45098039215685
        else:
            if input[0] <= 41.5:
                var61 = 161.6551724137931
            else:
                var61 = 142.36363636363637
    else:
        if input[5] <= 1.4550000429153442:
            if input[2] <= 1.8450000286102295:
                var61 = 143.24223602484471
            else:
                var61 = 135.72307692307692
        else:
            if input[7] <= 1.550000011920929:
                var61 = 132.0
            else:
                var61 = 147.9958158995816
    if input[7] <= 1.550000011920929:
        if input[5] <= 1.3450000286102295:
            if input[5] <= 1.1050000190734863:
                var62 = 133.78947368421052
            else:
                var62 = 160.53333333333333
        else:
            if input[1] <= 41.35000038146973:
                var62 = 145.9090909090909
            else:
                var62 = 133.52238805970148
    else:
        if input[3] <= 182.5:
            if input[1] <= 99.0:
                var62 = 147.2251655629139
            else:
                var62 = 155.29787234042553
        else:
            if input[5] <= 1.4550000429153442:
                var62 = 141.83937823834196
            else:
                var62 = 148.38571428571427
    if input[4] <= 71.5:
        if input[3] <= 182.5:
            if input[8] <= 4.25:
                var63 = 157.64102564102564
            else:
                var63 = 148.38615664845173
        else:
            if input[8] <= 5.75:
                var63 = 148.4421768707483
            else:
                var63 = 143.90510948905109
    else:
        if input[12] <= 0.5:
            if input[0] <= 32.5:
                var63 = 141.7155172413793
            else:
                var63 = 149.30322580645162
        else:
            if input[1] <= 84.85000228881836:
                var63 = 134.53125
            else:
                var63 = 148.06666666666666
    if input[3] <= 182.5:
        if input[4] <= 66.5:
            if input[6] <= 939.5:
                var64 = 146.6086956521739
            else:
                var64 = 152.6203007518797
        else:
            if input[6] <= 456.0:
                var64 = 129.0625
            else:
                var64 = 146.35190615835776
    else:
        if input[6] <= 426.5:
            if input[8] <= 6.75:
                var64 = 124.11111111111111
            else:
                var64 = 137.875
        else:
            if input[1] <= 40.10000038146973:
                var64 = 136.58823529411765
            else:
                var64 = 143.83018867924528
    if input[6] <= 409.5:
        if input[8] <= 6.299999952316284:
            var65 = 122.0
        else:
            var65 = 136.5
    else:
        if input[4] <= 61.5:
            if input[3] <= 167.5:
                var65 = 154.82291666666666
            else:
                var65 = 147.33262260127933
        else:
            if input[5] <= 1.5449999570846558:
                var65 = 143.26208178438662
            else:
                var65 = 148.51282051282053
    if input[3] <= 170.5:
        if input[13] <= 0.5:
            if input[2] <= 1.8550000190734863:
                var66 = 149.0
            else:
                var66 = 140.08510638297872
        else:
            if input[6] <= 736.0:
                var66 = 142.9
            else:
                var66 = 156.17582417582418
    else:
        if input[3] <= 198.5:
            if input[4] <= 73.5:
                var66 = 146.314791403287
            else:
                var66 = 141.70921985815602
        else:
            if input[0] <= 51.5:
                var66 = 140.63333333333333
            else:
                var66 = 127.18181818181819
    if input[6] <= 432.5:
        if input[8] <= 6.75:
            if input[7] <= 2.25:
                var67 = 120.66666666666667
            else:
                var67 = 130.4
        else:
            if input[4] <= 63.5:
                var67 = 151.75
            else:
                var67 = 134.44444444444446
    else:
        if input[3] <= 182.5:
            if input[8] <= 6.1499998569488525:
                var67 = 150.04804804804806
            else:
                var67 = 146.32009925558313
        else:
            if input[6] <= 788.5:
                var67 = 147.9758064516129
            else:
                var67 = 142.75802997858673
    if input[7] <= 1.550000011920929:
        if input[5] <= 1.3799999952316284:
            if input[2] <= 1.8450000286102295:
                var68 = 147.0
            else:
                var68 = 132.4
        else:
            if input[11] <= 0.5:
                var68 = 135.125
            else:
                var68 = 125.46153846153847
    else:
        if input[4] <= 73.5:
            if input[1] <= 40.54999923706055:
                var68 = 141.3177570093458
            else:
                var68 = 148.68928950159068
        else:
            if input[6] <= 496.5:
                var68 = 130.47619047619048
            else:
                var68 = 142.87939698492463
    if input[7] <= 1.550000011920929:
        if input[5] <= 1.409999966621399:
            if input[0] <= 24.5:
                var69 = 129.0
            else:
                var69 = 150.0952380952381
        else:
            if input[6] <= 625.0:
                var69 = 124.75
            else:
                var69 = 135.5744680851064
    else:
        if input[3] <= 165.5:
            if input[8] <= 6.049999952316284:
                var69 = 146.3013698630137
            else:
                var69 = 155.30769230769232
        else:
            if input[1] <= 48.44999885559082:
                var69 = 142.37244897959184
            else:
                var69 = 147.04441913439635
    if input[6] <= 715.5:
        if input[8] <= 4.6499998569488525:
            if input[0] <= 44.0:
                var70 = 129.36666666666667
            else:
                var70 = 154.66666666666666
        else:
            if input[1] <= 55.35000038146973:
                var70 = 138.13636363636363
            else:
                var70 = 146.10687022900763
    else:
        if input[3] <= 186.5:
            if input[6] <= 1413.5:
                var70 = 148.6809917355372
            else:
                var70 = 143.04504504504504
        else:
            if input[8] <= 4.450000047683716:
                var70 = 136.52380952380952
            else:
                var70 = 144.51902173913044
    if input[3] <= 182.5:
        if input[6] <= 528.5:
            if input[6] <= 339.5:
                var71 = 151.55555555555554
            else:
                var71 = 134.16216216216216
        else:
            if input[4] <= 73.5:
                var71 = 149.6206322795341
            else:
                var71 = 143.33898305084745
    else:
        if input[7] <= 3.450000047683716:
            if input[7] <= 3.25:
                var71 = 142.96314496314497
            else:
                var71 = 136.9891304347826
        else:
            if input[6] <= 840.5:
                var71 = 157.6551724137931
            else:
                var71 = 143.92424242424244
    if input[3] <= 167.5:
        if input[1] <= 98.8499984741211:
            if input[1] <= 94.54999923706055:
                var72 = 150.20353982300884
            else:
                var72 = 131.0
        else:
            if input[2] <= 1.725000023841858:
                var72 = 165.85714285714286
            else:
                var72 = 151.25
    else:
        if input[4] <= 64.5:
            if input[8] <= 5.3500001430511475:
                var72 = 151.2601156069364
            else:
                var72 = 145.93994778067886
        else:
            if input[1] <= 84.35000228881836:
                var72 = 142.6090909090909
            else:
                var72 = 149.00884955752213
    if input[3] <= 182.5:
        if input[6] <= 575.0:
            if input[0] <= 42.5:
                var73 = 133.24242424242425
            else:
                var73 = 155.0
        else:
            if input[2] <= 1.8650000095367432:
                var73 = 149.10452961672473
            else:
                var73 = 143.2
    else:
        if input[6] <= 887.0:
            if input[9] <= 0.5:
                var73 = 141.9
            else:
                var73 = 151.88793103448276
        else:
            if input[6] <= 990.5:
                var73 = 136.52702702702703
            else:
                var73 = 143.66760563380282
    if input[7] <= 1.550000011920929:
        if input[5] <= 1.4450000524520874:
            if input[8] <= 6.1499998569488525:
                var74 = 156.76470588235293
            else:
                var74 = 141.7
        else:
            if input[5] <= 1.8799999952316284:
                var74 = 130.09677419354838
            else:
                var74 = 141.5
    else:
        if input[3] <= 166.5:
            if input[8] <= 7.3500001430511475:
                var74 = 148.03333333333333
            else:
                var74 = 156.0735294117647
        else:
            if input[4] <= 67.5:
                var74 = 147.3543046357616
            else:
                var74 = 144.41491841491842
    if input[4] <= 64.5:
        if input[7] <= 1.6500000357627869:
            if input[3] <= 175.5:
                var75 = 149.48387096774192
            else:
                var75 = 137.875
        else:
            if input[7] <= 3.049999952316284:
                var75 = 150.82392026578074
            else:
                var75 = 146.49514563106797
    else:
        if input[3] <= 172.5:
            if input[5] <= 1.3149999976158142:
                var75 = 151.125
            else:
                var75 = 143.87826086956522
        else:
            if input[0] <= 24.5:
                var75 = 137.00943396226415
            else:
                var75 = 143.43909348441926
    if input[2] <= 1.6549999713897705:
        if input[3] <= 176.5:
            if input[3] <= 161.5:
                var76 = 144.125
            else:
                var76 = 156.75925925925927
        else:
            if input[1] <= 68.1500015258789:
                var76 = 140.30555555555554
            else:
                var76 = 152.14563106796118
    else:
        if input[4] <= 65.5:
            if input[7] <= 3.350000023841858:
                var76 = 145.1341463414634
            else:
                var76 = 151.8091603053435
        else:
            if input[3] <= 198.5:
                var76 = 142.17062634989202
            else:
                var76 = 130.25
    if input[4] <= 65.5:
        if input[7] <= 1.6500000357627869:
            if input[0] <= 42.0:
                var77 = 146.35555555555555
            else:
                var77 = 137.05882352941177
        else:
            if input[8] <= 7.75:
                var77 = 150.0922431865828
            else:
                var77 = 145.71345029239765
    else:
        if input[1] <= 108.79999923706055:
            if input[6] <= 640.0:
                var77 = 137.82258064516128
            else:
                var77 = 144.68965517241378
        else:
            if input[0] <= 29.5:
                var77 = 149.625
            else:
                var77 = 163.1818181818182
    if input[2] <= 1.715000033378601:
        if input[3] <= 174.5:
            if input[5] <= 0.8499999940395355:
                var78 = 161.94736842105263
            else:
                var78 = 151.02970297029702
        else:
            if input[3] <= 175.5:
                var78 = 133.66666666666666
            else:
                var78 = 146.93820224719101
    else:
        if input[4] <= 67.5:
            if input[1] <= 75.9000015258789:
                var78 = 148.23961661341852
            else:
                var78 = 143.40151515151516
        else:
            if input[3] <= 164.5:
                var78 = 155.03571428571428
            else:
                var78 = 140.96598639455783
    if input[6] <= 532.5:
        if input[3] <= 163.0:
            var79 = 157.42857142857142
        else:
            if input[3] <= 190.5:
                var79 = 132.3695652173913
            else:
                var79 = 142.83333333333334
    else:
        if input[3] <= 182.5:
            if input[2] <= 1.6549999713897705:
                var79 = 150.09895833333334
            else:
                var79 = 146.4207436399217
        else:
            if input[7] <= 1.550000011920929:
                var79 = 137.67441860465115
            else:
                var79 = 144.55037313432837
    if input[5] <= 0.7450000047683716:
        if input[1] <= 61.39999961853027:
            if input[6] <= 1047.5:
                var80 = 137.125
            else:
                var80 = 123.71428571428571
        else:
            if input[4] <= 67.5:
                var80 = 153.0
            else:
                var80 = 138.3
    else:
        if input[3] <= 192.5:
            if input[11] <= 0.5:
                var80 = 148.0933660933661
            else:
                var80 = 143.58778625954199
        else:
            if input[1] <= 67.20000076293945:
                var80 = 139.12295081967213
            else:
                var80 = 147.22935779816513
    if input[3] <= 170.5:
        if input[2] <= 1.725000023841858:
            if input[7] <= 1.550000011920929:
                var81 = 139.07692307692307
            else:
                var81 = 153.92528735632183
        else:
            if input[5] <= 0.75:
                var81 = 128.5
            else:
                var81 = 147.22085889570553
    else:
        if input[8] <= 6.25:
            if input[2] <= 1.6050000190734863:
                var81 = 152.72727272727272
            else:
                var81 = 145.67302452316076
        else:
            if input[6] <= 1247.5:
                var81 = 141.89448441247004
            else:
                var81 = 146.03401360544217
    var82 = var26 + var27 + var28 + var29 + var30 + var31 + var32 + var33 + var34 + var35 + var36 + var37 + var38 + var39 + var40 + var41 + var42 + var43 + var44 + var45 + var46 + var47 + var48 + var49 + var50 + var51 + var52 + var53 + var54 + var55 + var56 + var57 + var58 + var59 + var60 + var61 + var62 + var63 + var64 + var65 + var66 + var67 + var68 + var69 + var70 + var71 + var72 + var73 + var74 + var75 + var76 + var77 + var78 + var79 + var80 + var81
    if input[3] <= 182.5:
        if input[6] <= 954.5:
            if input[0] <= 53.0:
                var83 = 146.89558232931728
            else:
                var83 = 139.5483870967742
        else:
            if input[4] <= 63.5:
                var83 = 152.4264705882353
            else:
                var83 = 148.09913793103448
    else:
        if input[6] <= 409.5:
            if input[7] <= 2.5500000715255737:
                var83 = 124.2
            else:
                var83 = 134.4
        else:
            if input[2] <= 1.6549999713897705:
                var83 = 147.57142857142858
            else:
                var83 = 143.39457202505218
    if input[6] <= 528.5:
        if input[2] <= 1.715000033378601:
            if input[1] <= 66.5999984741211:
                var84 = 137.68421052631578
            else:
                var84 = 153.375
        else:
            if input[12] <= 0.5:
                var84 = 138.0
            else:
                var84 = 125.93333333333334
    else:
        if input[8] <= 4.25:
            if input[6] <= 895.5:
                var84 = 141.5
            else:
                var84 = 155.98305084745763
        else:
            if input[3] <= 165.5:
                var84 = 150.45731707317074
            else:
                var84 = 145.78787878787878
    if input[3] <= 172.5:
        if input[6] <= 878.5:
            if input[8] <= 4.75:
                var85 = 134.34615384615384
            else:
                var85 = 146.93798449612405
        else:
            if input[11] <= 0.5:
                var85 = 151.90322580645162
            else:
                var85 = 144.6417910447761
    else:
        if input[4] <= 67.5:
            if input[0] <= 55.5:
                var85 = 146.84877126654064
            else:
                var85 = 133.78947368421052
        else:
            if input[5] <= 1.225000023841858:
                var85 = 137.82394366197184
            else:
                var85 = 143.7086956521739
    if input[2] <= 1.725000023841858:
        if input[9] <= 0.5:
            if input[5] <= 1.6150000095367432:
                var86 = 144.148
            else:
                var86 = 151.01136363636363
        else:
            if input[0] <= 33.5:
                var86 = 154.242774566474
            else:
                var86 = 146.9746835443038
    else:
        if input[5] <= 1.524999976158142:
            if input[6] <= 1702.0:
                var86 = 143.60666666666665
            else:
                var86 = 128.23529411764707
        else:
            if input[8] <= 8.449999809265137:
                var86 = 149.93908629441626
            else:
                var86 = 137.73076923076923
    if input[6] <= 575.5:
        if input[2] <= 1.625:
            if input[0] <= 29.0:
                var87 = 163.28571428571428
            else:
                var87 = 140.42857142857142
        else:
            if input[7] <= 2.149999976158142:
                var87 = 129.80769230769232
            else:
                var87 = 139.375
    else:
        if input[7] <= 1.550000011920929:
            if input[4] <= 68.5:
                var87 = 146.24137931034483
            else:
                var87 = 136.51111111111112
        else:
            if input[5] <= 1.5449999570846558:
                var87 = 147.06698564593302
            else:
                var87 = 150.99382716049382
    if input[3] <= 182.5:
        if input[6] <= 873.0:
            if input[2] <= 1.9350000023841858:
                var88 = 145.96279069767442
            else:
                var88 = 133.9
        else:
            if input[7] <= 3.450000047683716:
                var88 = 148.57276995305165
            else:
                var88 = 154.96774193548387
    else:
        if input[5] <= 1.4850000143051147:
            if input[6] <= 514.5:
                var88 = 130.52
            else:
                var88 = 142.43169398907105
        else:
            if input[7] <= 3.450000047683716:
                var88 = 146.06285714285715
            else:
                var88 = 155.5897435897436
    if input[7] <= 2.649999976158142:
        if input[8] <= 4.1499998569488525:
            var89 = 163.1818181818182
        else:
            if input[1] <= 98.89999771118164:
                var89 = 143.33828996282529
            else:
                var89 = 151.3913043478261
    else:
        if input[4] <= 64.5:
            if input[6] <= 534.0:
                var89 = 139.5
            else:
                var89 = 151.65135135135134
        else:
            if input[8] <= 7.549999952316284:
                var89 = 147.83908045977012
            else:
                var89 = 141.4954954954955
    if input[4] <= 64.5:
        if input[2] <= 1.725000023841858:
            if input[8] <= 4.25:
                var90 = 160.6818181818182
            else:
                var90 = 150.79347826086956
        else:
            if input[6] <= 521.5:
                var90 = 136.375
            else:
                var90 = 147.58823529411765
    else:
        if input[3] <= 182.5:
            if input[6] <= 1495.0:
                var90 = 146.99455040871933
            else:
                var90 = 136.67741935483872
        else:
            if input[0] <= 48.5:
                var90 = 140.63636363636363
            else:
                var90 = 150.28846153846155
    if input[6] <= 432.5:
        if input[12] <= 0.5:
            if input[5] <= 1.4199999570846558:
                var91 = 134.08695652173913
            else:
                var91 = 153.66666666666666
        else:
            var91 = 124.22222222222223
    else:
        if input[4] <= 71.5:
            if input[13] <= 0.5:
                var91 = 146.62
            else:
                var91 = 151.16161616161617
        else:
            if input[3] <= 174.5:
                var91 = 148.1909090909091
            else:
                var91 = 142.4532710280374
    if input[4] <= 71.5:
        if input[8] <= 4.3500001430511475:
            if input[5] <= 1.3300000429153442:
                var92 = 146.25
            else:
                var92 = 159.37735849056602
        else:
            if input[1] <= 99.54999923706055:
                var92 = 145.98306997742662
            else:
                var92 = 152.5974025974026
    else:
        if input[3] <= 185.5:
            if input[0] <= 39.5:
                var92 = 146.77868852459017
            else:
                var92 = 140.64556962025316
        else:
            if input[0] <= 49.5:
                var92 = 135.68867924528303
            else:
                var92 = 156.41666666666666
    if input[4] <= 65.5:
        if input[1] <= 99.75:
            if input[6] <= 580.0:
                var93 = 138.72727272727272
            else:
                var93 = 147.7133220910624
        else:
            if input[1] <= 112.8499984741211:
                var93 = 159.94444444444446
            else:
                var93 = 143.9090909090909
    else:
        if input[2] <= 1.715000033378601:
            if input[5] <= 1.3949999809265137:
                var93 = 149.55244755244755
            else:
                var93 = 144.29285714285714
        else:
            if input[5] <= 1.125:
                var93 = 137.30769230769232
            else:
                var93 = 144.27777777777777
    if input[3] <= 182.5:
        if input[8] <= 7.6499998569488525:
            if input[8] <= 7.3500001430511475:
                var94 = 148.48178137651823
            else:
                var94 = 155.93650793650792
        else:
            if input[0] <= 50.5:
                var94 = 143.45303867403314
            else:
                var94 = 156.03846153846155
    else:
        if input[6] <= 566.5:
            if input[7] <= 2.350000023841858:
                var94 = 126.26666666666667
            else:
                var94 = 139.0
        else:
            if input[4] <= 71.5:
                var94 = 145.74692874692875
            else:
                var94 = 140.8943661971831
    if input[7] <= 1.550000011920929:
        if input[5] <= 1.3450000286102295:
            if input[6] <= 1541.0:
                var95 = 149.6590909090909
            else:
                var95 = 131.11111111111111
        else:
            if input[5] <= 1.5649999976158142:
                var95 = 128.27586206896552
            else:
                var95 = 139.22727272727272
    else:
        if input[4] <= 71.5:
            if input[10] <= 0.5:
                var95 = 150.21867881548974
            else:
                var95 = 145.56926406926408
        else:
            if input[0] <= 58.5:
                var95 = 142.65337423312883
            else:
                var95 = 160.83333333333334
    if input[4] <= 71.5:
        if input[3] <= 182.5:
            if input[2] <= 1.725000023841858:
                var96 = 150.16538461538462
            else:
                var96 = 146.39076923076922
        else:
            if input[0] <= 57.5:
                var96 = 145.12383177570092
            else:
                var96 = 122.625
    else:
        if input[3] <= 165.5:
            if input[6] <= 954.5:
                var96 = 145.5483870967742
            else:
                var96 = 157.16666666666666
        else:
            if input[6] <= 1222.0:
                var96 = 139.87280701754386
            else:
                var96 = 147.91803278688525
    if input[1] <= 60.85000038146973:
        if input[13] <= 0.5:
            if input[7] <= 3.450000047683716:
                var97 = 141.53731343283582
            else:
                var97 = 148.03030303030303
        else:
            if input[6] <= 598.0:
                var97 = 136.1875
            else:
                var97 = 148.74264705882354
    else:
        if input[7] <= 1.6500000357627869:
            if input[5] <= 1.5:
                var97 = 145.75
            else:
                var97 = 132.97222222222223
        else:
            if input[2] <= 1.725000023841858:
                var97 = 151.1051051051051
            else:
                var97 = 146.72386058981232
    if input[4] <= 63.5:
        if input[7] <= 1.550000011920929:
            if input[4] <= 58.5:
                var98 = 131.6060606060606
            else:
                var98 = 151.21052631578948
        else:
            if input[5] <= 1.534999966621399:
                var98 = 146.45833333333334
            else:
                var98 = 151.35675675675677
    else:
        if input[6] <= 1752.0:
            if input[3] <= 174.5:
                var98 = 146.27916666666667
            else:
                var98 = 142.40570175438597
        else:
            if input[3] <= 186.5:
                var98 = 128.4
            else:
                var98 = 136.875
    if input[6] <= 555.0:
        if input[2] <= 1.6649999618530273:
            if input[1] <= 60.35000038146973:
                var99 = 136.7
            else:
                var99 = 154.27272727272728
        else:
            if input[3] <= 183.5:
                var99 = 139.1086956521739
            else:
                var99 = 131.17241379310346
    else:
        if input[7] <= 1.550000011920929:
            if input[6] <= 685.5:
                var99 = 128.4
            else:
                var99 = 141.95402298850576
        else:
            if input[5] <= 1.5750000476837158:
                var99 = 145.54959159859976
            else:
                var99 = 149.33009708737865
    if input[6] <= 426.5:
        if input[8] <= 6.199999809265137:
            if input[3] <= 187.0:
                var100 = 136.28571428571428
            else:
                var100 = 124.0
        else:
            if input[8] <= 7.150000095367432:
                var100 = 153.66666666666666
            else:
                var100 = 132.75
    else:
        if input[0] <= 45.5:
            if input[1] <= 42.25:
                var100 = 140.34579439252337
            else:
                var100 = 145.6086956521739
        else:
            if input[2] <= 1.534999966621399:
                var100 = 139.04347826086956
            else:
                var100 = 149.8993288590604
    if input[1] <= 99.54999923706055:
        if input[8] <= 4.1499998569488525:
            if input[4] <= 66.0:
                var101 = 158.96
            else:
                var101 = 145.125
        else:
            if input[3] <= 171.5:
                var101 = 148.31594202898552
            else:
                var101 = 144.8180790960452
    else:
        if input[1] <= 101.54999923706055:
            if input[6] <= 1113.5:
                var101 = 168.5
            else:
                var101 = 163.6
        else:
            if input[3] <= 162.5:
                var101 = 166.4
            else:
                var101 = 147.16901408450704
    if input[7] <= 1.6500000357627869:
        if input[5] <= 1.4450000524520874:
            if input[8] <= 6.1499998569488525:
                var102 = 151.09375
            else:
                var102 = 137.61818181818182
        else:
            if input[2] <= 1.774999976158142:
                var102 = 139.4090909090909
            else:
                var102 = 129.76666666666668
    else:
        if input[5] <= 1.5449999570846558:
            if input[2] <= 1.6549999713897705:
                var102 = 149.19024390243902
            else:
                var102 = 144.36996904024767
        else:
            if input[8] <= 8.849999904632568:
                var102 = 150.22089552238805
            else:
                var102 = 136.25
    if input[6] <= 703.0:
        if input[8] <= 4.6499998569488525:
            if input[4] <= 64.5:
                var103 = 142.69230769230768
            else:
                var103 = 130.66666666666666
        else:
            if input[2] <= 1.8450000286102295:
                var103 = 145.96350364963504
            else:
                var103 = 135.3939393939394
    else:
        if input[1] <= 70.35000228881836:
            if input[3] <= 191.5:
                var103 = 146.99811676082862
            else:
                var103 = 141.94610778443115
        else:
            if input[2] <= 1.5149999856948853:
                var103 = 162.88235294117646
            else:
                var103 = 148.9908466819222
    if input[6] <= 426.5:
        if input[6] <= 319.5:
            var104 = 148.16666666666666
        else:
            if input[7] <= 2.9499999284744263:
                var104 = 122.46153846153847
            else:
                var104 = 136.27272727272728
    else:
        if input[8] <= 4.1499998569488525:
            if input[4] <= 71.5:
                var104 = 159.11111111111111
            else:
                var104 = 140.25
        else:
            if input[3] <= 166.5:
                var104 = 149.02857142857144
            else:
                var104 = 145.09375
    if input[3] <= 165.5:
        if input[6] <= 954.0:
            if input[5] <= 1.3899999856948853:
                var105 = 151.37209302325581
            else:
                var105 = 142.23529411764707
        else:
            if input[2] <= 1.5950000286102295:
                var105 = 163.15384615384616
            else:
                var105 = 152.84259259259258
    else:
        if input[7] <= 1.550000011920929:
            if input[5] <= 1.4450000524520874:
                var105 = 143.95652173913044
            else:
                var105 = 131.4418604651163
        else:
            if input[4] <= 59.5:
                var105 = 148.85529715762274
            else:
                var105 = 144.49404761904762
    if input[3] <= 171.5:
        if input[5] <= 1.284999966621399:
            if input[5] <= 1.2450000047683716:
                var106 = 150.68055555555554
            else:
                var106 = 161.0
        else:
            if input[7] <= 3.149999976158142:
                var106 = 143.32478632478632
            else:
                var106 = 149.86363636363637
    else:
        if input[0] <= 58.5:
            if input[2] <= 1.6050000190734863:
                var106 = 149.289156626506
            else:
                var106 = 144.05927835051546
        else:
            if input[1] <= 63.95000076293945:
                var106 = 152.57142857142858
            else:
                var106 = 123.25
    if input[6] <= 432.5:
        if input[12] <= 0.5:
            if input[5] <= 1.4199999570846558:
                var107 = 133.88888888888889
            else:
                var107 = 150.75
        else:
            var107 = 122.6
    else:
        if input[4] <= 64.5:
            if input[1] <= 98.8499984741211:
                var107 = 147.3265625
            else:
                var107 = 155.3921568627451
        else:
            if input[2] <= 1.7450000047683716:
                var107 = 146.8421052631579
            else:
                var107 = 142.6206896551724
    if input[6] <= 496.5:
        if input[5] <= 1.9049999713897705:
            if input[1] <= 88.20000076293945:
                var108 = 132.2439024390244
            else:
                var108 = 144.77777777777777
        else:
            if input[7] <= 2.75:
                var108 = 157.25
            else:
                var108 = 133.5
    else:
        if input[5] <= 1.5149999856948853:
            if input[4] <= 65.5:
                var108 = 147.12747252747252
            else:
                var108 = 143.63120567375887
        else:
            if input[7] <= 1.550000011920929:
                var108 = 138.64583333333334
            else:
                var108 = 149.6449864498645
    if input[3] <= 167.5:
        if input[8] <= 8.449999809265137:
            if input[2] <= 1.6549999713897705:
                var109 = 155.24137931034483
            else:
                var109 = 149.06369426751593
        else:
            var109 = 162.6
    else:
        if input[4] <= 71.5:
            if input[6] <= 591.0:
                var109 = 139.0
            else:
                var109 = 147.19225806451612
        else:
            if input[0] <= 28.5:
                var109 = 138.40384615384616
            else:
                var109 = 143.9543147208122
    if input[4] <= 65.5:
        if input[3] <= 179.5:
            if input[6] <= 852.5:
                var110 = 144.60344827586206
            else:
                var110 = 152.74285714285713
        else:
            if input[2] <= 1.6649999618530273:
                var110 = 150.54807692307693
            else:
                var110 = 143.932384341637
    else:
        if input[6] <= 1111.5:
            if input[6] <= 1012.0:
                var110 = 143.4213649851632
            else:
                var110 = 136.63235294117646
        else:
            if input[8] <= 6.6499998569488525:
                var110 = 142.79090909090908
            else:
                var110 = 150.90225563909775
    if input[6] <= 526.5:
        if input[0] <= 38.0:
            if input[1] <= 91.04999923706055:
                var111 = 141.6206896551724
            else:
                var111 = 163.0
        else:
            if input[6] <= 307.5:
                var111 = 150.5
            else:
                var111 = 130.76470588235293
    else:
        if input[4] <= 65.5:
            if input[7] <= 2.350000023841858:
                var111 = 146.218009478673
            else:
                var111 = 151.15618221258134
        else:
            if input[6] <= 1579.0:
                var111 = 146.45833333333334
            else:
                var111 = 133.76923076923077
    if input[7] <= 1.550000011920929:
        if input[5] <= 1.3849999904632568:
            if input[5] <= 1.125:
                var112 = 139.0
            else:
                var112 = 154.75862068965517
        else:
            if input[2] <= 1.8899999856948853:
                var112 = 134.09722222222223
            else:
                var112 = 148.85714285714286
    else:
        if input[6] <= 532.5:
            if input[3] <= 161.5:
                var112 = 159.0
            else:
                var112 = 138.3139534883721
        else:
            if input[4] <= 65.5:
                var112 = 149.27993254637437
            else:
                var112 = 145.4375
    if input[3] <= 182.5:
        if input[6] <= 678.0:
            if input[14] <= 0.5:
                var113 = 138.36065573770492
            else:
                var113 = 153.2608695652174
        else:
            if input[6] <= 1767.0:
                var113 = 148.9609984399376
            else:
                var113 = 158.77777777777777
    else:
        if input[4] <= 64.5:
            if input[0] <= 56.5:
                var113 = 146.13782051282053
            else:
                var113 = 130.2
        else:
            if input[8] <= 4.25:
                var113 = 150.55555555555554
            else:
                var113 = 140.51685393258427
    if input[4] <= 63.5:
        if input[8] <= 4.3500001430511475:
            if input[9] <= 0.5:
                var114 = 148.0
            else:
                var114 = 163.1153846153846
        else:
            if input[3] <= 167.5:
                var114 = 152.49056603773585
            else:
                var114 = 146.19665271966528
    else:
        if input[6] <= 1759.0:
            if input[2] <= 1.5149999856948853:
                var114 = 132.88
            else:
                var114 = 144.54297994269342
        else:
            if input[3] <= 173.5:
                var114 = 132.4
            else:
                var114 = 124.7
    if input[6] <= 528.5:
        if input[12] <= 0.5:
            if input[6] <= 489.0:
                var115 = 144.0
            else:
                var115 = 131.66666666666666
        else:
            if input[0] <= 25.5:
                var115 = 137.83333333333334
            else:
                var115 = 124.92857142857143
    else:
        if input[6] <= 582.5:
            if input[2] <= 1.8450000286102295:
                var115 = 156.75
            else:
                var115 = 143.4
        else:
            if input[4] <= 67.5:
                var115 = 146.93160054719561
            else:
                var115 = 143.90291262135923
    if input[3] <= 183.5:
        if input[4] <= 69.5:
            if input[6] <= 851.5:
                var116 = 145.28225806451613
            else:
                var116 = 150.9945205479452
        else:
            if input[3] <= 165.5:
                var116 = 152.13114754098362
            else:
                var116 = 143.521327014218
    else:
        if input[4] <= 63.5:
            if input[13] <= 0.5:
                var116 = 144.847533632287
            else:
                var116 = 151.01162790697674
        else:
            if input[7] <= 1.550000011920929:
                var116 = 134.13793103448276
            else:
                var116 = 142.53076923076924
    if input[3] <= 165.5:
        if input[6] <= 955.0:
            if input[1] <= 75.75:
                var117 = 144.02272727272728
            else:
                var117 = 153.375
        else:
            if input[4] <= 53.5:
                var117 = 143.5
            else:
                var117 = 155.06930693069307
    else:
        if input[6] <= 532.5:
            if input[7] <= 1.6500000357627869:
                var117 = 153.33333333333334
            else:
                var117 = 133.63636363636363
        else:
            if input[2] <= 1.6549999713897705:
                var117 = 148.3898916967509
            else:
                var117 = 144.632972322503
    if input[5] <= 1.534999966621399:
        if input[6] <= 647.0:
            if input[2] <= 1.7200000286102295:
                var118 = 143.52542372881356
            else:
                var118 = 133.45098039215685
        else:
            if input[1] <= 90.95000076293945:
                var118 = 145.24364123159305
            else:
                var118 = 152.19354838709677
    else:
        if input[4] <= 71.5:
            if input[7] <= 1.550000011920929:
                var118 = 140.63636363636363
            else:
                var118 = 151.38028169014083
        else:
            if input[6] <= 1189.5:
                var118 = 142.82558139534885
            else:
                var118 = 157.35294117647058
    if input[2] <= 1.6649999618530273:
        if input[2] <= 1.6150000095367432:
            if input[1] <= 106.60000228881836:
                var119 = 149.117903930131
            else:
                var119 = 131.8
        else:
            if input[8] <= 6.3500001430511475:
                var119 = 157.09859154929578
            else:
                var119 = 148.2962962962963
    else:
        if input[7] <= 1.550000011920929:
            if input[0] <= 33.5:
                var119 = 132.6060606060606
            else:
                var119 = 142.75
        else:
            if input[4] <= 67.5:
                var119 = 147.7753036437247
            else:
                var119 = 143.98714652956298
    if input[4] <= 65.5:
        if input[7] <= 1.6500000357627869:
            if input[3] <= 180.5:
                var120 = 147.93333333333334
            else:
                var120 = 137.80434782608697
        else:
            if input[6] <= 565.5:
                var120 = 141.5
            else:
                var120 = 149.88983050847457
    else:
        if input[3] <= 165.5:
            if input[7] <= 1.949999988079071:
                var120 = 135.41176470588235
            else:
                var120 = 152.62337662337663
        else:
            if input[5] <= 1.5750000476837158:
                var120 = 142.5825
            else:
                var120 = 147.21818181818182
    if input[4] <= 64.5:
        if input[3] <= 184.5:
            if input[11] <= 0.5:
                var121 = 151.2872340425532
            else:
                var121 = 144.93258426966293
        else:
            if input[8] <= 6.75:
                var121 = 143.0609756097561
            else:
                var121 = 148.38655462184875
    else:
        if input[12] <= 0.5:
            if input[5] <= 1.5449999570846558:
                var121 = 142.76288659793815
            else:
                var121 = 148.9346405228758
        else:
            if input[6] <= 496.5:
                var121 = 123.66666666666667
            else:
                var121 = 139.00645161290322
    if input[1] <= 99.89999771118164:
        if input[6] <= 468.0:
            if input[12] <= 0.5:
                var122 = 141.35897435897436
            else:
                var122 = 126.14285714285714
        else:
            if input[4] <= 58.5:
                var122 = 148.21002386634845
            else:
                var122 = 144.86700125470514
    else:
        if input[3] <= 164.5:
            if input[4] <= 64.5:
                var122 = 167.66666666666666
            else:
                var122 = 159.66666666666666
        else:
            if input[4] <= 67.0:
                var122 = 155.22222222222223
            else:
                var122 = 145.6
    if input[6] <= 1185.5:
        if input[4] <= 67.5:
            if input[0] <= 51.5:
                var123 = 148.35087719298247
            else:
                var123 = 140.28813559322035
        else:
            if input[3] <= 166.5:
                var123 = 149.8
            else:
                var123 = 141.12790697674419
    else:
        if input[2] <= 1.5149999856948853:
            var123 = 164.9375
        else:
            if input[3] <= 185.5:
                var123 = 150.9375
            else:
                var123 = 145.84177215189874
    if input[5] <= 0.7350000143051147:
        if input[5] <= 0.6050000190734863:
            if input[1] <= 70.0999984741211:
                var124 = 157.72727272727272
            else:
                var124 = 142.45454545454547
        else:
            if input[5] <= 0.7049999833106995:
                var124 = 128.19230769230768
            else:
                var124 = 134.125
    else:
        if input[5] <= 0.8449999988079071:
            if input[0] <= 26.5:
                var124 = 146.08333333333334
            else:
                var124 = 161.2962962962963
        else:
            if input[2] <= 1.5149999856948853:
                var124 = 154.35416666666666
            else:
                var124 = 146.3336092715232
    if input[6] <= 434.0:
        if input[8] <= 6.6499998569488525:
            if input[7] <= 2.25:
                var125 = 120.28571428571429
            else:
                var125 = 130.8
        else:
            if input[8] <= 7.299999952316284:
                var125 = 150.2
            else:
                var125 = 133.66666666666666
    else:
        if input[3] <= 183.5:
            if input[1] <= 99.0:
                var125 = 147.2780082987552
            else:
                var125 = 153.95238095238096
        else:
            if input[2] <= 1.8550000190734863:
                var125 = 145.73210161662817
            else:
                var125 = 139.4144144144144
    if input[3] <= 182.5:
        if input[0] <= 53.5:
            if input[4] <= 55.5:
                var126 = 151.74045801526717
            else:
                var126 = 147.95804195804195
        else:
            if input[0] <= 54.5:
                var126 = 133.78947368421052
            else:
                var126 = 146.5
    else:
        if input[1] <= 40.60000038146973:
            if input[6] <= 613.5:
                var126 = 156.83333333333334
            else:
                var126 = 135.7826086956522
        else:
            if input[1] <= 42.0:
                var126 = 159.25
            else:
                var126 = 144.54857142857142
    if input[1] <= 99.0:
        if input[3] <= 167.5:
            if input[1] <= 95.0999984741211:
                var127 = 150.49792531120332
            else:
                var127 = 127.66666666666667
        else:
            if input[7] <= 1.550000011920929:
                var127 = 139.8860759493671
            else:
                var127 = 145.70452155625657
    else:
        if input[1] <= 101.54999923706055:
            if input[4] <= 67.5:
                var127 = 167.57142857142858
            else:
                var127 = 148.75
        else:
            if input[3] <= 182.5:
                var127 = 156.7906976744186
            else:
                var127 = 141.28571428571428
    if input[4] <= 64.5:
        if input[3] <= 179.5:
            if input[8] <= 4.3500001430511475:
                var128 = 161.63636363636363
            else:
                var128 = 149.16370106761565
        else:
            if input[6] <= 994.0:
                var128 = 143.12025316455697
            else:
                var128 = 147.7285067873303
    else:
        if input[6] <= 1623.5:
            if input[5] <= 0.8100000023841858:
                var128 = 136.1904761904762
            else:
                var128 = 145.0580431177446
        else:
            if input[5] <= 1.284999966621399:
                var128 = 136.8125
            else:
                var128 = 123.875
    if input[7] <= 1.550000011920929:
        if input[5] <= 1.3849999904632568:
            if input[5] <= 1.225000023841858:
                var129 = 139.57142857142858
            else:
                var129 = 156.15384615384616
        else:
            if input[1] <= 43.0:
                var129 = 145.72727272727272
            else:
                var129 = 133.11428571428573
    else:
        if input[3] <= 182.5:
            if input[8] <= 4.25:
                var129 = 158.125
            else:
                var129 = 147.97443609022557
        else:
            if input[5] <= 1.475000023841858:
                var129 = 143.4931880108992
            else:
                var129 = 148.16763005780348
    if input[6] <= 521.0:
        if input[2] <= 1.715000033378601:
            if input[7] <= 2.8000000715255737:
                var130 = 153.1818181818182
            else:
                var130 = 137.0
        else:
            if input[2] <= 1.7450000047683716:
                var130 = 124.44444444444444
            else:
                var130 = 136.75555555555556
    else:
        if input[4] <= 66.5:
            if input[7] <= 2.649999976158142:
                var130 = 145.95286195286195
            else:
                var130 = 149.9848101265823
        else:
            if input[3] <= 165.5:
                var130 = 150.85
            else:
                var130 = 143.9090909090909
    if input[6] <= 569.0:
        if input[3] <= 162.5:
            var131 = 153.0
        else:
            if input[7] <= 1.6500000357627869:
                var131 = 152.7
            else:
                var131 = 138.48863636363637
    else:
        if input[7] <= 2.149999976158142:
            if input[0] <= 32.5:
                var131 = 147.70967741935485
            else:
                var131 = 141.60752688172042
        else:
            if input[6] <= 624.5:
                var131 = 159.9655172413793
            else:
                var131 = 147.6812705366922
    if input[6] <= 432.5:
        if input[8] <= 6.299999952316284:
            var132 = 125.46153846153847
        else:
            if input[4] <= 71.0:
                var132 = 144.5
            else:
                var132 = 134.42857142857142
    else:
        if input[4] <= 63.5:
            if input[5] <= 1.3849999904632568:
                var132 = 150.04268292682926
            else:
                var132 = 145.91958041958043
        else:
            if input[3] <= 183.5:
                var132 = 146.0835164835165
            else:
                var132 = 141.91603053435114
    if input[1] <= 82.85000228881836:
        if input[4] <= 65.5:
            if input[7] <= 3.350000023841858:
                var133 = 145.99751243781094
            else:
                var133 = 151.05263157894737
        else:
            if input[3] <= 174.5:
                var133 = 147.13812154696132
            else:
                var133 = 140.01234567901236
    else:
        if input[1] <= 83.8499984741211:
            if input[9] <= 0.5:
                var133 = 153.57142857142858
            else:
                var133 = 166.33333333333334
        else:
            if input[7] <= 3.549999952316284:
                var133 = 148.57575757575756
            else:
                var133 = 160.58823529411765
    if input[4] <= 65.5:
        if input[8] <= 8.449999809265137:
            if input[7] <= 1.6500000357627869:
                var134 = 143.90625
            else:
                var134 = 149.7404181184669
        else:
            if input[3] <= 169.5:
                var134 = 158.9
            else:
                var134 = 141.62337662337663
    else:
        if input[0] <= 50.5:
            if input[1] <= 44.95000076293945:
                var134 = 137.23076923076923
            else:
                var134 = 144.02697095435684
        else:
            if input[6] <= 848.0:
                var134 = 155.875
            else:
                var134 = 144.85714285714286
    if input[4] <= 69.5:
        if input[1] <= 68.45000076293945:
            if input[7] <= 1.550000011920929:
                var135 = 135.78947368421052
            else:
                var135 = 147.26849894291755
        else:
            if input[2] <= 1.7649999856948853:
                var135 = 152.17977528089887
            else:
                var135 = 146.21678321678323
    else:
        if input[3] <= 174.5:
            if input[2] <= 1.9350000023841858:
                var135 = 150.23622047244095
            else:
                var135 = 133.78571428571428
        else:
            if input[6] <= 1226.0:
                var135 = 140.0460251046025
            else:
                var135 = 147.6206896551724
    if input[4] <= 63.5:
        if input[7] <= 2.649999976158142:
            if input[2] <= 1.6549999713897705:
                var136 = 151.14084507042253
            else:
                var136 = 144.47685185185185
        else:
            if input[2] <= 1.9449999928474426:
                var136 = 151.51104100946372
            else:
                var136 = 139.26666666666668
    else:
        if input[6] <= 1579.0:
            if input[6] <= 1372.5:
                var136 = 144.1174603174603
            else:
                var136 = 150.66666666666666
        else:
            if input[11] <= 0.5:
                var136 = 132.43333333333334
            else:
                var136 = 146.9090909090909
    if input[7] <= 1.550000011920929:
        if input[6] <= 549.5:
            var137 = 157.22222222222223
        else:
            if input[5] <= 1.175000011920929:
                var137 = 148.57142857142858
            else:
                var137 = 135.06410256410257
    else:
        if input[1] <= 99.75:
            if input[3] <= 197.5:
                var137 = 146.40073868882732
            else:
                var137 = 139.9718309859155
        else:
            if input[3] <= 162.5:
                var137 = 166.27272727272728
            else:
                var137 = 149.56976744186048
    var138 = var82 + var83 + var84 + var85 + var86 + var87 + var88 + var89 + var90 + var91 + var92 + var93 + var94 + var95 + var96 + var97 + var98 + var99 + var100 + var101 + var102 + var103 + var104 + var105 + var106 + var107 + var108 + var109 + var110 + var111 + var112 + var113 + var114 + var115 + var116 + var117 + var118 + var119 + var120 + var121 + var122 + var123 + var124 + var125 + var126 + var127 + var128 + var129 + var130 + var131 + var132 + var133 + var134 + var135 + var136 + var137
    if input[4] <= 71.5:
        if input[3] <= 182.5:
            if input[7] <= 1.550000011920929:
                var139 = 140.57142857142858
            else:
                var139 = 149.86732673267326
        else:
            if input[0] <= 56.5:
                var139 = 146.05326876513317
            else:
                var139 = 127.2
    else:
        if input[8] <= 6.6499998569488525:
            if input[2] <= 1.6549999713897705:
                var139 = 149.7
            else:
                var139 = 137.82894736842104
        else:
            if input[6] <= 1225.0:
                var139 = 143.01315789473685
            else:
                var139 = 153.17777777777778
    if input[6] <= 563.0:
        if input[12] <= 0.5:
            if input[1] <= 55.75:
                var140 = 134.6153846153846
            else:
                var140 = 145.5909090909091
        else:
            if input[2] <= 1.6850000023841858:
                var140 = 146.875
            else:
                var140 = 128.6086956521739
    else:
        if input[7] <= 1.550000011920929:
            if input[8] <= 6.299999952316284:
                var140 = 145.5744680851064
            else:
                var140 = 136.34615384615384
        else:
            if input[4] <= 67.5:
                var140 = 148.6769911504425
            else:
                var140 = 145.6195426195426
    if input[7] <= 1.550000011920929:
        if input[5] <= 1.3849999904632568:
            if input[6] <= 1413.5:
                var141 = 149.09375
            else:
                var141 = 136.625
        else:
            if input[4] <= 62.5:
                var141 = 129.6206896551724
            else:
                var141 = 142.31578947368422
    else:
        if input[3] <= 165.5:
            if input[6] <= 953.5:
                var141 = 146.78082191780823
            else:
                var141 = 155.48
        else:
            if input[4] <= 65.5:
                var141 = 148.85689045936397
            else:
                var141 = 144.49317738791424
    if input[4] <= 63.5:
        if input[6] <= 588.0:
            if input[14] <= 0.5:
                var142 = 136.55
            else:
                var142 = 154.2
        else:
            if input[3] <= 182.5:
                var142 = 150.13725490196077
            else:
                var142 = 146.40501792114696
    else:
        if input[6] <= 1563.5:
            if input[7] <= 2.149999976158142:
                var142 = 140.61081081081082
            else:
                var142 = 145.5625
        else:
            if input[7] <= 3.149999976158142:
                var142 = 138.84
            else:
                var142 = 127.66666666666667
    if input[6] <= 573.5:
        if input[2] <= 1.6150000095367432:
            if input[0] <= 29.0:
                var143 = 159.0
            else:
                var143 = 143.57142857142858
        else:
            if input[0] <= 39.0:
                var143 = 133.09259259259258
            else:
                var143 = 145.45454545454547
    else:
        if input[2] <= 1.6549999713897705:
            if input[0] <= 33.5:
                var143 = 145.95882352941177
            else:
                var143 = 152.32022471910113
        else:
            if input[6] <= 1763.0:
                var143 = 146.4960362400906
            else:
                var143 = 135.53846153846155
    if input[7] <= 1.550000011920929:
        if input[1] <= 91.04999923706055:
            if input[5] <= 1.409999966621399:
                var144 = 143.20454545454547
            else:
                var144 = 133.9814814814815
        else:
            if input[11] <= 0.5:
                var144 = 161.8
            else:
                var144 = 137.88888888888889
    else:
        if input[3] <= 182.5:
            if input[8] <= 4.3500001430511475:
                var144 = 156.82
            else:
                var144 = 147.92080745341616
        else:
            if input[5] <= 1.4450000524520874:
                var144 = 141.9112426035503
            else:
                var144 = 149.9904761904762
    if input[4] <= 67.5:
        if input[2] <= 1.9350000023841858:
            if input[1] <= 99.70000076293945:
                var145 = 147.2792665726375
            else:
                var145 = 153.86274509803923
        else:
            if input[8] <= 6.049999952316284:
                var145 = 148.6818181818182
            else:
                var145 = 138.17777777777778
    else:
        if input[0] <= 55.5:
            if input[1] <= 83.0999984741211:
                var145 = 141.27179487179487
            else:
                var145 = 147.1818181818182
        else:
            if input[5] <= 1.1899999976158142:
                var145 = 139.16666666666666
            else:
                var145 = 157.1153846153846
    if input[3] <= 182.5:
        if input[6] <= 965.0:
            if input[0] <= 19.5:
                var146 = 139.05128205128204
            else:
                var146 = 146.78039215686275
        else:
            if input[4] <= 71.5:
                var146 = 151.5872093023256
            else:
                var146 = 143.81132075471697
    else:
        if input[4] <= 64.5:
            if input[8] <= 5.8500001430511475:
                var146 = 149.58333333333334
            else:
                var146 = 144.04444444444445
        else:
            if input[7] <= 3.450000047683716:
                var146 = 140.56589147286823
            else:
                var146 = 150.51111111111112
    if input[3] <= 165.5:
        if input[6] <= 665.5:
            if input[3] <= 162.0:
                var147 = 153.85714285714286
            else:
                var147 = 134.75
        else:
            if input[2] <= 1.5750000476837158:
                var147 = 161.9375
            else:
                var147 = 151.48170731707316
    else:
        if input[6] <= 576.5:
            if input[9] <= 0.5:
                var147 = 133.1590909090909
            else:
                var147 = 142.69444444444446
        else:
            if input[4] <= 71.5:
                var147 = 146.70780856423173
            else:
                var147 = 141.856
    if input[4] <= 63.5:
        if input[1] <= 66.85000228881836:
            if input[2] <= 1.7050000429153442:
                var148 = 140.96581196581195
            else:
