columns = ['Age', 'Weight (kg)', 'Height (m)', 'Max_BPM', 'Avg_BPM', 'Resting_BPM', 'Session_Duration (hours)', 'Calories_Burned', 'Water_Intake (liters)', 'Gender_Female', 'Gender_Male', 'Workout_Type_Cardio', 'Workout_Type_HIIT', 'Workout_Type_Strength', 'Workout_Type_Yoga']

def score(input):
    if input[4] <= 153.5:
        if input[3] <= 166.5:
            if input[8] <= 2.549999952316284:
                var0 = 6.653061224489797
            else:
                var0 = 5.780000000000001
        else:
            if input[1] <= 60.64999961853027:
                var0 = 6.362190812720848
            else:
                var0 = 6.834441805225653
    else:
        if input[6] <= 1.5149999856948853:
            if input[0] <= 43.5:
                var0 = 6.637500000000002
            else:
                var0 = 6.030693069306931
        else:
            if input[2] <= 1.6050000190734863:
                var0 = 6.895454545454546
            else:
                var0 = 5.707500000000001
    if input[8] <= 3.649999976158142:
        if input[1] <= 86.4000015258789:
            if input[2] <= 1.7649999856948853:
                var1 = 6.301697530864205
            else:
                var1 = 6.577777777777776
        else:
            if input[3] <= 193.5:
                var1 = 6.53722222222222
            else:
                var1 = 7.810526315789472
    else:
        if input[4] <= 159.5:
            if input[2] <= 1.6349999904632568:
                var1 = 7.158333333333334
            else:
                var1 = 5.7941176470588225
        else:
            if input[2] <= 1.9049999713897705:
                var1 = 4.692857142857143
            else:
                var1 = 8.5
    if input[4] <= 155.5:
        if input[3] <= 166.5:
            if input[6] <= 1.034999966621399:
                var2 = 4.7727272727272725
            else:
                var2 = 6.323333333333333
        else:
            if input[9] <= 0.5:
                var2 = 6.498457583547557
            else:
                var2 = 6.994836956521737
    else:
        if input[6] <= 1.4249999523162842:
            if input[1] <= 45.85000038146973:
                var2 = 5.682222222222222
            else:
                var2 = 6.676068376068379
        else:
            if input[8] <= 3.350000023841858:
                var2 = 6.216800000000002
            else:
                var2 = 5.410447761194031
    if input[5] <= 67.5:
        if input[7] <= 595.0:
            if input[1] <= 54.14999961853027:
                var3 = 6.173913043478261
            else:
                var3 = 5.4222222222222225
        else:
            if input[5] <= 66.5:
                var3 = 6.495939849624062
            else:
                var3 = 5.691891891891892
    else:
        if input[2] <= 1.5750000476837158:
            if input[0] <= 49.0:
                var3 = 7.848780487804878
            else:
                var3 = 6.44
        else:
            if input[7] <= 1625.0:
                var3 = 6.577629063097511
            else:
                var3 = 7.821052631578948
    if input[0] <= 38.5:
        if input[1] <= 48.04999923706055:
            if input[5] <= 55.5:
                var4 = 6.757142857142856
            else:
                var4 = 5.753435114503818
        else:
            if input[8] <= 3.549999952316284:
                var4 = 6.287394957983191
            else:
                var4 = 7.013559322033898
    else:
        if input[4] <= 167.5:
            if input[0] <= 49.5:
                var4 = 6.90170068027211
            else:
                var4 = 6.321761658031088
        else:
            if input[6] <= 1.1600000262260437:
                var4 = 6.842857142857142
            else:
                var4 = 5.3657894736842096
    if input[3] <= 160.5:
        if input[4] <= 121.5:
            var5 = 8.0
        else:
            if input[2] <= 1.8899999856948853:
                var5 = 4.709999999999999
            else:
                var5 = 8.6
    else:
        if input[3] <= 191.5:
            if input[5] <= 57.5:
                var5 = 6.724422442244224
            else:
                var5 = 6.35533333333333
        else:
            if input[1] <= 81.70000076293945:
                var5 = 6.576995305164316
            else:
                var5 = 7.397142857142858
    if input[12] <= 0.5:
        if input[2] <= 1.9149999618530273:
            if input[2] <= 1.8450000286102295:
                var6 = 6.443341121495321
            else:
                var6 = 5.938016528925618
        else:
            if input[0] <= 48.5:
                var6 = 7.195714285714287
            else:
                var6 = 6.013636363636363
    else:
        if input[3] <= 167.5:
            if input[2] <= 1.8899999856948853:
                var6 = 5.78780487804878
            else:
                var6 = 8.566666666666666
        else:
            if input[0] <= 28.5:
                var6 = 6.445744680851062
            else:
                var6 = 7.112500000000001
    if input[10] <= 0.5:
        if input[0] <= 28.5:
            if input[5] <= 62.5:
                var7 = 6.016129032258065
            else:
                var7 = 6.702803738317762
        else:
            if input[7] <= 503.0:
                var7 = 5.631818181818184
            else:
                var7 = 6.877517564402812
    else:
        if input[7] <= 500.0:
            if input[1] <= 78.69999694824219:
                var7 = 5.171428571428572
            else:
                var7 = 7.219999999999999
        else:
            if input[7] <= 1258.0:
                var7 = 6.550000000000002
            else:
                var7 = 6.191964285714287
    if input[4] <= 168.5:
        if input[0] <= 51.5:
            if input[0] <= 47.5:
                var8 = 6.517093142272263
            else:
                var8 = 7.131250000000001
        else:
            if input[7] <= 1651.0:
                var8 = 6.091946308724835
            else:
                var8 = 7.8625
    else:
        if input[6] <= 1.1549999713897705:
            if input[6] <= 1.0199999809265137:
                var8 = 5.923076923076923
            else:
                var8 = 7.705555555555555
        else:
            if input[3] <= 167.5:
                var8 = 6.834999999999999
            else:
                var8 = 5.628723404255321
    if input[6] <= 0.7849999964237213:
        if input[2] <= 1.7999999523162842:
            if input[8] <= 3.549999952316284:
                var9 = 7.7437499999999995
            else:
                var9 = 5.859999999999999
        else:
            var9 = 5.783333333333332
    else:
        if input[3] <= 193.5:
            if input[6] <= 1.9950000047683716:
                var9 = 6.364113326337877
            else:
                var9 = 6.8713178294573645
        else:
            if input[7] <= 915.5:
                var9 = 7.260273972602739
            else:
                var9 = 6.559712230215826
    if input[10] <= 0.5:
        if input[4] <= 132.5:
            if input[1] <= 78.35000228881836:
                var10 = 5.997247706422022
            else:
                var10 = 6.849999999999999
        else:
            if input[12] <= 0.5:
                var10 = 6.6306569343065656
            else:
                var10 = 7.160714285714285
    else:
        if input[4] <= 154.5:
            if input[7] <= 487.0:
                var10 = 5.506666666666669
            else:
                var10 = 6.502027027027029
        else:
            if input[5] <= 66.5:
                var10 = 6.350735294117648
            else:
                var10 = 5.645121951219514
    if input[4] <= 157.5:
        if input[3] <= 166.5:
            if input[6] <= 0.9549999833106995:
                var11 = 4.676470588235294
            else:
                var11 = 6.161363636363637
        else:
            if input[1] <= 60.64999961853027:
                var11 = 6.465573770491801
            else:
                var11 = 6.847568710359407
    else:
        if input[6] <= 1.4249999523162842:
            if input[5] <= 63.5:
                var11 = 6.123529411764706
            else:
                var11 = 6.778217821782176
        else:
            if input[6] <= 1.9950000047683716:
                var11 = 5.575396825396825
            else:
                var11 = 6.835714285714286
    if input[9] <= 0.5:
        if input[7] <= 1258.5:
            if input[7] <= 1178.5:
                var12 = 6.293080357142858
            else:
                var12 = 7.216949152542373
        else:
            if input[2] <= 1.8450000286102295:
                var12 = 5.734351145038168
            else:
                var12 = 6.661538461538462
    else:
        if input[4] <= 156.5:
            if input[4] <= 129.5:
                var12 = 6.421008403361346
            else:
                var12 = 6.898475609756097
        else:
            if input[7] <= 1097.0:
                var12 = 6.1046979865771815
            else:
                var12 = 6.720930232558141
    if input[4] <= 154.5:
        if input[7] <= 1381.5:
            if input[7] <= 1367.5:
                var13 = 6.646461949265683
            else:
                var13 = 8.455555555555556
        else:
            if input[5] <= 58.5:
                var13 = 6.851219512195121
            else:
                var13 = 5.92409638554217
    else:
        if input[7] <= 1333.5:
            if input[0] <= 38.5:
                var13 = 6.417813765182187
            else:
                var13 = 5.753284671532848
        else:
            if input[7] <= 1418.5:
                var13 = 7.5600000000000005
            else:
                var13 = 6.313207547169809
    if input[13] <= 0.5:
        if input[7] <= 1745.5:
            if input[3] <= 192.5:
                var14 = 6.390144546649151
            else:
                var14 = 6.740414507772026
        else:
            if input[10] <= 0.5:
                var14 = 7.729629629629629
            else:
                var14 = 5.95
    else:
        if input[4] <= 145.5:
            if input[8] <= 2.850000023841858:
                var14 = 6.884883720930236
            else:
                var14 = 6.013793103448276
        else:
            if input[7] <= 522.0:
                var14 = 7.611111111111111
            else:
                var14 = 5.852659574468085
    if input[4] <= 157.5:
        if input[7] <= 1412.5:
            if input[3] <= 167.5:
                var15 = 6.206711409395972
            else:
                var15 = 6.741654571843242
        else:
            if input[8] <= 2.649999976158142:
                var15 = 6.710000000000001
            else:
                var15 = 5.701408450704225
    else:
        if input[1] <= 101.4000015258789:
            if input[7] <= 1383.0:
                var15 = 6.068731563421828
            else:
                var15 = 6.762068965517241
        else:
            var15 = 7.753846153846155
    if input[10] <= 0.5:
        if input[7] <= 1725.0:
            if input[5] <= 57.5:
                var16 = 6.194285714285713
            else:
                var16 = 6.680457380457379
        else:
            if input[4] <= 166.5:
                var16 = 8.428571428571429
            else:
                var16 = 7.26
    else:
        if input[5] <= 51.5:
            if input[3] <= 174.5:
                var16 = 6.0636363636363635
            else:
                var16 = 7.432142857142856
        else:
            if input[7] <= 873.5:
                var16 = 6.463101604278075
            else:
                var16 = 6.079642058165546
    if input[3] <= 192.5:
        if input[6] <= 1.9950000047683716:
            if input[6] <= 0.6150000095367432:
                var17 = 7.858333333333334
            else:
                var17 = 6.35070993914807
        else:
            if input[0] <= 20.5:
                var17 = 6.157692307692309
            else:
                var17 = 7.176190476190476
    else:
        if input[1] <= 85.79999923706055:
            if input[8] <= 1.75:
                var17 = 7.7368421052631575
            else:
                var17 = 6.571212121212123
        else:
            if input[13] <= 0.5:
                var17 = 8.374193548387096
            else:
                var17 = 5.966666666666666
    if input[1] <= 86.5:
        if input[3] <= 163.5:
            if input[5] <= 71.5:
                var18 = 6.077333333333333
            else:
                var18 = 4.9350000000000005
        else:
            if input[4] <= 156.5:
                var18 = 6.560869565217392
            else:
                var18 = 6.135416666666668
    else:
        if input[6] <= 1.2899999618530273:
            if input[3] <= 187.5:
                var18 = 5.880434782608695
            else:
                var18 = 7.070967741935484
        else:
            if input[0] <= 37.5:
                var18 = 6.598507462686569
            else:
                var18 = 7.472602739726027
    if input[9] <= 0.5:
        if input[3] <= 197.5:
            if input[11] <= 0.5:
                var19 = 6.329646017699108
            else:
                var19 = 6.692344497607656
        else:
            if input[8] <= 3.0:
                var19 = 4.861111111111111
            else:
                var19 = 6.347368421052631
    else:
        if input[3] <= 197.5:
            if input[1] <= 120.3499984741211:
                var19 = 6.574750830564781
            else:
                var19 = 8.150000000000002
        else:
            if input[0] <= 32.0:
                var19 = 6.8950000000000005
            else:
                var19 = 8.027586206896553
    if input[10] <= 0.5:
        if input[7] <= 1685.5:
            if input[0] <= 30.5:
                var20 = 6.328571428571428
            else:
                var20 = 6.682564102564102
        else:
            if input[14] <= 0.5:
                var20 = 7.300000000000001
            else:
                var20 = 8.38888888888889
    else:
        if input[0] <= 34.5:
            if input[7] <= 498.0:
                var20 = 5.1571428571428575
            else:
                var20 = 6.531185567010311
        else:
            if input[13] <= 0.5:
                var20 = 6.22892156862745
            else:
                var20 = 5.5395061728395065
    if input[4] <= 154.5:
        if input[7] <= 1359.0:
            if input[7] <= 1222.5:
                var21 = 6.6003044140030465
            else:
                var21 = 7.243820224719099
        else:
            if input[5] <= 72.5:
                var21 = 6.016806722689076
            else:
                var21 = 7.7875
    else:
        if input[6] <= 1.4249999523162842:
            if input[0] <= 26.5:
                var21 = 6.988
            else:
                var21 = 6.264397905759167
        else:
            if input[3] <= 191.5:
                var21 = 5.759537572254334
            else:
                var21 = 6.5319148936170235
    if input[10] <= 0.5:
        if input[7] <= 1706.0:
            if input[3] <= 166.5:
                var22 = 6.112121212121212
            else:
                var22 = 6.619607843137259
        else:
            if input[8] <= 2.049999952316284:
                var22 = 6.933333333333334
            else:
                var22 = 8.315384615384616
    else:
        if input[7] <= 356.5:
            var22 = 8.2375
        else:
            if input[7] <= 565.5:
                var22 = 5.334615384615385
            else:
                var22 = 6.290979782270613
    if input[1] <= 54.04999923706055:
        if input[4] <= 123.5:
            if input[2] <= 1.550000011920929:
                var23 = 6.833333333333333
            else:
                var23 = 5.136
        else:
            if input[2] <= 1.5750000476837158:
                var23 = 5.175
            else:
                var23 = 6.292546583850931
    else:
        if input[7] <= 323.5:
            var23 = 8.100000000000001
        else:
            if input[7] <= 500.0:
                var23 = 5.881395348837209
            else:
                var23 = 6.579914984059517
    if input[2] <= 1.725000023841858:
        if input[2] <= 1.6050000190734863:
            if input[5] <= 70.5:
                var24 = 6.250675675675679
            else:
                var24 = 7.294202898550723
        else:
            if input[1] <= 89.1500015258789:
                var24 = 6.122807017543862
            else:
                var24 = 6.63728813559322
    else:
        if input[4] <= 166.5:
            if input[1] <= 77.0:
                var24 = 6.545511482254698
            else:
                var24 = 6.991443850267379
        else:
            if input[6] <= 1.1349999904632568:
                var24 = 6.788235294117647
            else:
                var24 = 5.768965517241378
    if input[7] <= 684.5:
        if input[2] <= 1.7649999856948853:
            if input[11] <= 0.5:
                var25 = 5.666386554621851
            else:
                var25 = 6.750000000000001
        else:
            if input[0] <= 34.5:
                var25 = 6.161538461538462
            else:
                var25 = 7.284
    else:
        if input[7] <= 689.5:
            var25 = 8.415384615384616
        else:
            if input[0] <= 19.5:
                var25 = 6.035338345864659
            else:
                var25 = 6.595626242544731
    if input[3] <= 196.5:
        if input[3] <= 162.5:
            if input[7] <= 857.0:
                var26 = 7.4125000000000005
            else:
                var26 = 5.534117647058825
        else:
            if input[8] <= 3.649999976158142:
                var26 = 6.455313351498636
            else:
                var26 = 5.5681818181818175
    else:
        if input[5] <= 62.5:
            if input[5] <= 55.5:
                var26 = 7.466666666666665
            else:
                var26 = 5.911999999999999
        else:
            if input[10] <= 0.5:
                var26 = 7.871153846153847
            else:
                var26 = 6.883333333333334
    if input[11] <= 0.5:
        if input[3] <= 162.5:
            if input[1] <= 79.29999923706055:
                var27 = 6.072727272727272
            else:
                var27 = 5.0
        else:
            if input[4] <= 166.5:
                var27 = 6.439412484700119
            else:
                var27 = 5.964864864864863
    else:
        if input[3] <= 181.5:
            if input[3] <= 170.5:
                var27 = 6.496385542168674
            else:
                var27 = 7.432911392405066
        else:
            if input[6] <= 1.5950000286102295:
                var27 = 6.131304347826088
            else:
                var27 = 7.0807692307692305
    if input[3] <= 160.5:
        if input[4] <= 138.5:
            var28 = 6.442857142857143
        else:
            var28 = 4.656249999999999
    else:
        if input[3] <= 191.5:
            if input[5] <= 57.5:
                var28 = 6.6993174061433445
            else:
                var28 = 6.2767105263157905
        else:
            if input[1] <= 84.04999923706055:
                var28 = 6.511983471074377
            else:
                var28 = 7.7024390243902445
    if input[9] <= 0.5:
        if input[1] <= 112.29999923706055:
            if input[6] <= 0.7950000166893005:
                var29 = 7.5249999999999995
            else:
                var29 = 6.33918032786885
        else:
            if input[8] <= 3.549999952316284:
                var29 = 5.028
            else:
                var29 = 7.44
    else:
        if input[5] <= 61.5:
            if input[0] <= 18.5:
                var29 = 5.204545454545456
            else:
                var29 = 6.454724409448818
        else:
            if input[6] <= 1.4249999523162842:
                var29 = 7.098190045248867
            else:
                var29 = 6.501515151515153
    if input[3] <= 191.5:
        if input[3] <= 166.5:
            if input[4] <= 134.5:
                var30 = 5.424444444444444
            else:
                var30 = 6.126543209876543
        else:
            if input[5] <= 57.5:
                var30 = 6.667547169811325
            else:
                var30 = 6.293138936535164
    else:
        if input[6] <= 1.8650000095367432:
            if input[0] <= 21.5:
                var30 = 6.3181818181818175
            else:
                var30 = 7.146236559139781
        else:
            if input[13] <= 0.5:
                var30 = 6.4346938775510205
            else:
                var30 = 5.114285714285715
    if input[1] <= 120.80000305175781:
        if input[4] <= 166.5:
            if input[4] <= 165.5:
                var31 = 6.48549955791335
            else:
                var31 = 8.100000000000001
        else:
            if input[2] <= 1.6549999713897705:
                var31 = 6.5986486486486475
            else:
                var31 = 5.912800000000001
    else:
        var31 = 7.533333333333333
    if input[3] <= 166.5:
        if input[1] <= 103.0:
            if input[6] <= 1.159999966621399:
                var32 = 5.56808510638298
            else:
                var32 = 6.209333333333334
        else:
            var32 = 7.408333333333334
    else:
        if input[6] <= 1.3149999976158142:
            if input[2] <= 1.5549999475479126:
                var32 = 7.584848484848485
            else:
                var32 = 6.6047151277013745
        else:
            if input[4] <= 158.5:
                var32 = 6.462758620689649
            else:
                var32 = 6.000578034682086
    if input[4] <= 157.5:
        if input[4] <= 151.5:
            if input[1] <= 46.75:
                var33 = 6.082432432432433
            else:
                var33 = 6.573271889400925
        else:
            if input[0] <= 55.5:
                var33 = 6.858333333333334
            else:
                var33 = 8.4
    else:
        if input[6] <= 1.9950000047683716:
            if input[6] <= 1.725000023841858:
                var33 = 6.115254237288135
            else:
                var33 = 5.373913043478261
        else:
            if input[1] <= 55.5:
                var33 = 6.091304347826087
            else:
                var33 = 7.489999999999999
    if input[3] <= 161.5:
        if input[8] <= 2.850000023841858:
            if input[12] <= 0.5:
                var34 = 6.914285714285714
            else:
                var34 = 5.2875
        else:
            if input[8] <= 3.649999976158142:
                var34 = 5.111538461538462
            else:
                var34 = 8.0
    else:
        if input[9] <= 0.5:
            if input[4] <= 153.5:
                var34 = 6.514479638009047
            else:
                var34 = 6.059915611814343
        else:
            if input[1] <= 44.95000076293945:
                var34 = 5.985714285714288
            else:
                var34 = 6.7334552102376595
    if input[3] <= 161.5:
        if input[0] <= 44.0:
            if input[2] <= 1.6100000143051147:
                var35 = 5.285714285714286
            else:
                var35 = 6.793333333333333
        else:
            var35 = 4.6450000000000005
    else:
        if input[7] <= 487.0:
            if input[10] <= 0.5:
                var35 = 6.579310344827587
            else:
                var35 = 5.365789473684211
        else:
            if input[4] <= 154.5:
                var35 = 6.679568527918777
            else:
                var35 = 6.371136363636358
    if input[8] <= 2.75:
        if input[6] <= 1.1749999523162842:
            if input[9] <= 0.5:
                var36 = 6.706097560975608
            else:
                var36 = 7.465476190476191
        else:
            if input[3] <= 191.5:
                var36 = 6.3945868945868956
            else:
                var36 = 6.9612244897959155
    else:
        if input[1] <= 60.54999923706055:
            if input[0] <= 41.5:
                var36 = 6.306976744186047
            else:
                var36 = 5.792241379310344
        else:
            if input[0] <= 19.5:
                var36 = 5.657446808510638
            else:
                var36 = 6.678688524590167
    if input[10] <= 0.5:
        if input[3] <= 166.5:
            if input[0] <= 31.5:
                var37 = 6.717021276595744
            else:
                var37 = 5.726923076923078
        else:
            if input[3] <= 168.5:
                var37 = 7.359523809523809
            else:
                var37 = 6.636524822695027
    else:
        if input[4] <= 154.5:
            if input[8] <= 3.649999976158142:
                var37 = 6.51778846153846
            else:
                var37 = 5.3100000000000005
        else:
            if input[5] <= 57.5:
                var37 = 6.6986301369863
            else:
                var37 = 5.708275862068964
    if input[4] <= 121.5:
        if input[1] <= 52.85000038146973:
            if input[2] <= 1.5450000166893005:
                var38 = 6.3
            else:
                var38 = 4.58
        else:
            if input[7] <= 761.0:
                var38 = 5.35263157894737
            else:
                var38 = 6.782608695652174
    else:
        if input[4] <= 157.5:
            if input[2] <= 1.7649999856948853:
                var38 = 6.480539499036603
            else:
                var38 = 6.826133333333329
        else:
            if input[6] <= 1.4249999523162842:
                var38 = 6.473148148148147
            else:
                var38 = 6.0543010752688176
    if input[8] <= 3.649999976158142:
        if input[7] <= 946.0:
            if input[7] <= 875.5:
                var39 = 6.421590909090907
            else:
                var39 = 5.8210526315789455
        else:
            if input[0] <= 19.5:
                var39 = 6.096183206106872
            else:
                var39 = 6.693517017828199
    else:
        if input[6] <= 1.9700000286102295:
            if input[6] <= 1.1050000190734863:
                var39 = 6.872727272727272
            else:
                var39 = 5.292857142857143
        else:
            var39 = 8.05
    if input[0] <= 49.5:
        if input[0] <= 36.5:
            if input[5] <= 59.5:
                var40 = 6.653264604810996
            else:
                var40 = 6.292024539877305
        else:
            if input[4] <= 154.5:
                var40 = 6.943404255319152
            else:
                var40 = 6.342307692307691
    else:
        if input[3] <= 198.5:
            if input[7] <= 1135.5:
                var40 = 5.772440944881888
            else:
                var40 = 6.433333333333335
        else:
            var40 = 7.466666666666667
    if input[1] <= 47.54999923706055:
        if input[7] <= 625.5:
            if input[2] <= 1.8050000071525574:
                var41 = 7.607692307692308
            else:
                var41 = 6.086666666666665
        else:
            if input[2] <= 1.6349999904632568:
                var41 = 5.376744186046512
            else:
                var41 = 6.116326530612245
    else:
        if input[3] <= 163.5:
            if input[1] <= 96.04999923706055:
                var41 = 5.765789473684211
            else:
                var41 = 7.788888888888888
        else:
            if input[1] <= 51.45000076293945:
                var41 = 7.24
            else:
                var41 = 6.482340647857888
    if input[4] <= 166.5:
        if input[4] <= 132.5:
            if input[11] <= 0.5:
                var42 = 6.141532258064516
            else:
                var42 = 6.731428571428572
        else:
            if input[7] <= 799.0:
                var42 = 7.008450704225347
            else:
                var42 = 6.54898911353033
    else:
        if input[2] <= 1.9800000190734863:
            if input[2] <= 1.6549999713897705:
                var42 = 6.418181818181818
            else:
                var42 = 5.840163934426231
        else:
            var42 = 7.85
    if input[4] <= 155.5:
        if input[7] <= 1359.0:
            if input[4] <= 130.5:
                var43 = 6.397368421052632
            else:
                var43 = 6.840180180180182
        else:
            if input[7] <= 1428.0:
                var43 = 5.2972222222222225
            else:
                var43 = 6.393518518518516
    else:
        if input[6] <= 1.4350000023841858:
            if input[1] <= 101.4000015258789:
                var43 = 6.5365145228215775
            else:
                var43 = 7.716666666666666
        else:
            if input[7] <= 1344.5:
                var43 = 5.714765100671142
            else:
                var43 = 6.936666666666667
    if input[9] <= 0.5:
        if input[2] <= 1.715000033378601:
            if input[5] <= 62.5:
                var44 = 6.311538461538464
            else:
                var44 = 5.649019607843138
        else:
            if input[1] <= 100.04999923706055:
                var44 = 6.441509433962264
            else:
                var44 = 5.3909090909090915
    else:
        if input[7] <= 1725.0:
            if input[1] <= 120.3499984741211:
                var44 = 6.470216049382712
            else:
                var44 = 7.900000000000001
        else:
            if input[6] <= 1.4200000166893005:
                var44 = 7.1125
            else:
                var44 = 8.586666666666668
    if input[0] <= 19.5:
        if input[7] <= 444.5:
            var45 = 7.833333333333333
        else:
            if input[5] <= 50.5:
                var45 = 7.21111111111111
            else:
                var45 = 5.864705882352941
    else:
        if input[9] <= 0.5:
            if input[4] <= 134.5:
                var45 = 6.664171122994651
            else:
                var45 = 6.166997518610419
        else:
            if input[4] <= 132.5:
                var45 = 6.131666666666667
            else:
                var45 = 6.856182212581342
    var46 = var0 + var1 + var2 + var3 + var4 + var5 + var6 + var7 + var8 + var9 + var10 + var11 + var12 + var13 + var14 + var15 + var16 + var17 + var18 + var19 + var20 + var21 + var22 + var23 + var24 + var25 + var26 + var27 + var28 + var29 + var30 + var31 + var32 + var33 + var34 + var35 + var36 + var37 + var38 + var39 + var40 + var41 + var42 + var43 + var44 + var45
    if input[1] <= 61.04999923706055:
        if input[5] <= 51.5:
            if input[4] <= 123.5:
                var47 = 4.5249999999999995
            else:
                var47 = 7.047727272727273
        else:
            if input[2] <= 1.5449999570846558:
                var47 = 5.223076923076923
            else:
                var47 = 6.213559322033902
    else:
        if input[3] <= 164.5:
            if input[1] <= 101.25:
                var47 = 5.813131313131312
            else:
                var47 = 7.737499999999999
        else:
            if input[2] <= 1.6449999809265137:
                var47 = 7.03664596273292
            else:
                var47 = 6.5181651376146785
    if input[4] <= 155.5:
        if input[4] <= 120.5:
            if input[1] <= 50.70000076293945:
                var48 = 4.426666666666667
            else:
                var48 = 6.216666666666668
        else:
            if input[3] <= 163.5:
                var48 = 5.92295081967213
            else:
                var48 = 6.640075376884421
    else:
        if input[6] <= 1.3949999809265137:
            if input[2] <= 1.534999966621399:
                var48 = 7.6933333333333325
            else:
                var48 = 6.355020080321285
        else:
            if input[11] <= 0.5:
                var48 = 5.732934131736527
            else:
                var48 = 6.818749999999999
    if input[7] <= 1763.0:
        if input[3] <= 162.5:
            if input[7] <= 857.0:
                var49 = 6.374074074074075
            else:
                var49 = 5.575862068965515
        else:
            if input[4] <= 161.5:
                var49 = 6.575282051282051
            else:
                var49 = 6.228015564202331
    else:
        if input[3] <= 176.5:
            if input[4] <= 162.5:
                var49 = 6.292307692307693
            else:
                var49 = 7.58
        else:
            if input[0] <= 20.0:
                var49 = 5.300000000000001
            else:
                var49 = 8.186363636363636
    if input[3] <= 170.5:
        if input[7] <= 677.5:
            if input[0] <= 21.5:
                var50 = 6.508333333333334
            else:
                var50 = 5.238636363636364
        else:
            if input[2] <= 1.7949999570846558:
                var50 = 6.047596153846153
            else:
                var50 = 6.6000000000000005
    else:
        if input[7] <= 1747.0:
            if input[8] <= 3.25:
                var50 = 6.302830188679243
            else:
                var50 = 6.635988200589973
        else:
            if input[10] <= 0.5:
                var50 = 8.095
            else:
                var50 = 6.614285714285715
    if input[8] <= 2.649999976158142:
        if input[8] <= 2.450000047683716:
            if input[0] <= 22.5:
                var51 = 6.939024390243903
            else:
                var51 = 6.394670050761418
        else:
            if input[1] <= 45.25:
                var51 = 6.21111111111111
            else:
                var51 = 7.202830188679246
    else:
        if input[3] <= 164.5:
            if input[6] <= 1.2549999952316284:
                var51 = 5.065217391304349
            else:
                var51 = 5.83225806451613
        else:
            if input[2] <= 1.6549999713897705:
                var51 = 6.668333333333332
            else:
                var51 = 6.22186234817814
    if input[3] <= 163.5:
        if input[8] <= 1.6500000357627869:
            var52 = 7.1499999999999995
        else:
            if input[6] <= 1.1649999618530273:
                var52 = 4.5636363636363635
            else:
                var52 = 5.881250000000001
    else:
        if input[4] <= 155.5:
            if input[6] <= 1.3250000476837158:
                var52 = 6.480299251870326
            else:
                var52 = 6.834237995824633
        else:
            if input[6] <= 1.5149999856948853:
                var52 = 6.534538152610446
            else:
                var52 = 5.919999999999999
    if input[10] <= 0.5:
        if input[3] <= 166.5:
            if input[0] <= 27.0:
                var53 = 7.207692307692308
            else:
                var53 = 5.828985507246378
        else:
            if input[0] <= 28.5:
                var53 = 6.39809523809524
            else:
                var53 = 6.9744565217391274
    else:
        if input[5] <= 59.5:
            if input[6] <= 1.9399999976158142:
                var53 = 6.416521739130436
            else:
                var53 = 7.312244897959184
        else:
            if input[4] <= 157.5:
                var53 = 6.2794612794612785
            else:
                var53 = 5.71090909090909
    if input[14] <= 0.5:
        if input[2] <= 1.5850000381469727:
            if input[5] <= 68.5:
                var54 = 6.636666666666668
            else:
                var54 = 7.447826086956521
        else:
            if input[10] <= 0.5:
                var54 = 6.640420560747664
            else:
                var54 = 6.2881431767337785
    else:
        if input[0] <= 56.5:
            if input[7] <= 1667.0:
                var54 = 6.075535168195719
            else:
                var54 = 7.645454545454545
        else:
            var54 = 7.779999999999999
    if input[9] <= 0.5:
        if input[8] <= 2.649999976158142:
            if input[2] <= 1.875:
                var55 = 6.725572519083969
            else:
                var55 = 5.664516129032258
        else:
            if input[1] <= 98.75:
                var55 = 6.207310704960837
            else:
                var55 = 5.183870967741935
    else:
        if input[1] <= 45.04999923706055:
            if input[0] <= 18.5:
                var55 = 4.953846153846154
            else:
                var55 = 6.194871794871796
        else:
            if input[8] <= 1.550000011920929:
                var55 = 7.366037735849058
            else:
                var55 = 6.68155136268344
    if input[2] <= 1.7450000047683716:
        if input[6] <= 1.9950000047683716:
            if input[1] <= 87.35000228881836:
                var56 = 6.145523809523809
            else:
                var56 = 6.621818181818183
        else:
            if input[3] <= 176.5:
                var56 = 8.007692307692308
            else:
                var56 = 6.495312500000001
    else:
        if input[8] <= 3.649999976158142:
            if input[2] <= 1.8550000190734863:
                var56 = 6.8366391184573
            else:
                var56 = 6.409442060085836
        else:
            if input[4] <= 148.5:
                var56 = 5.000000000000001
            else:
                var56 = 6.861111111111112
    if input[7] <= 1668.0:
        if input[5] <= 53.5:
            if input[0] <= 21.5:
                var57 = 5.930434782608694
            else:
                var57 = 7.096428571428571
        else:
            if input[1] <= 81.79999923706055:
                var57 = 6.372877618522606
            else:
                var57 = 6.68082706766917
    else:
        if input[0] <= 20.5:
            var57 = 5.687500000000001
        else:
            if input[5] <= 67.0:
                var57 = 7.117857142857141
            else:
                var57 = 8.2
    if input[1] <= 121.5:
        if input[3] <= 167.5:
            if input[7] <= 600.5:
                var58 = 5.279166666666666
            else:
                var58 = 6.389150943396225
        else:
            if input[1] <= 112.29999923706055:
                var58 = 6.621019108280253
            else:
                var58 = 5.2299999999999995
    else:
        var58 = 7.857142857142857
    if input[3] <= 177.5:
        if input[7] <= 357.5:
            var59 = 7.777777777777778
        else:
            if input[6] <= 1.9350000023841858:
                var59 = 6.254207436399221
            else:
                var59 = 6.781012658227849
    else:
        if input[12] <= 0.5:
            if input[0] <= 55.5:
                var59 = 6.491727941176471
            else:
                var59 = 7.255555555555555
        else:
            if input[3] <= 179.5:
                var59 = 8.164285714285715
            else:
                var59 = 6.897142857142861
    if input[1] <= 57.64999961853027:
        if input[1] <= 56.25:
            if input[4] <= 126.5:
                var60 = 5.601694915254236
            else:
                var60 = 6.401530612244902
        else:
            if input[6] <= 1.125:
                var60 = 6.863636363636365
            else:
                var60 = 5.231707317073171
    else:
        if input[4] <= 141.5:
            if input[4] <= 135.5:
                var60 = 6.513025210084031
            else:
                var60 = 7.3383177570093485
        else:
            if input[7] <= 434.5:
                var60 = 8.030000000000001
            else:
                var60 = 6.424151696606787
    if input[0] <= 33.5:
        if input[1] <= 91.85000228881836:
            if input[1] <= 71.85000228881836:
                var61 = 6.2783251231527135
            else:
                var61 = 6.735135135135133
        else:
            if input[3] <= 191.5:
                var61 = 5.6125
            else:
                var61 = 7.058333333333333
    else:
        if input[3] <= 196.5:
            if input[6] <= 0.7549999952316284:
                var61 = 7.7368421052631575
            else:
                var61 = 6.560099337748335
        else:
            if input[4] <= 165.5:
                var61 = 7.606122448979593
            else:
                var61 = 5.1
    if input[1] <= 121.5:
        if input[13] <= 0.5:
            if input[3] <= 166.5:
                var62 = 6.128358208955224
            else:
                var62 = 6.607299270072996
        else:
            if input[4] <= 154.5:
                var62 = 6.487804878048778
            else:
                var62 = 5.913768115942028
    else:
        if input[6] <= 1.1549999713897705:
            var62 = 4.2
        else:
            var62 = 7.766666666666666
    if input[10] <= 0.5:
        if input[2] <= 1.524999976158142:
            if input[3] <= 183.0:
                var63 = 4.626666666666667
            else:
                var63 = 6.549999999999999
        else:
            if input[3] <= 197.5:
                var63 = 6.647334410339252
            else:
                var63 = 7.363793103448275
    else:
        if input[0] <= 20.5:
            if input[7] <= 386.0:
                var63 = 8.425
            else:
                var63 = 5.891366906474821
        else:
            if input[0] <= 31.5:
                var63 = 6.669109947643979
            else:
                var63 = 6.183385579937304
    if input[4] <= 154.5:
        if input[3] <= 166.5:
            if input[7] <= 678.0:
                var64 = 4.92
            else:
                var64 = 6.1675
        else:
            if input[0] <= 51.5:
                var64 = 6.736127167630062
            else:
                var64 = 5.913698630136986
    else:
        if input[7] <= 1283.5:
            if input[7] <= 438.5:
                var64 = 8.72
            else:
                var64 = 5.942857142857144
        else:
            if input[2] <= 1.9049999713897705:
                var64 = 6.654761904761902
            else:
                var64 = 8.080000000000002
    if input[7] <= 357.5:
        if input[1] <= 60.89999961853027:
            var65 = 7.233333333333333
        else:
            var65 = 8.254545454545454
    else:
        if input[9] <= 0.5:
            if input[3] <= 180.5:
                var65 = 6.144126984126983
            else:
                var65 = 6.515850144092217
        else:
            if input[3] <= 197.5:
                var65 = 6.597335423197497
            else:
                var65 = 7.3309523809523816
    if input[3] <= 166.5:
        if input[6] <= 1.034999966621399:
            if input[1] <= 92.04999923706055:
                var66 = 4.865217391304347
            else:
                var66 = 6.242857142857143
        else:
            if input[1] <= 103.0:
                var66 = 6.136516853932583
            else:
                var66 = 7.5
    else:
        if input[3] <= 172.5:
            if input[2] <= 1.8049999475479126:
                var66 = 6.641176470588236
            else:
                var66 = 7.403333333333334
        else:
            if input[4] <= 166.5:
                var66 = 6.555919395465994
            else:
                var66 = 6.1155405405405405
    if input[7] <= 1628.5:
        if input[1] <= 47.54999923706055:
            if input[4] <= 123.5:
                var67 = 4.725
            else:
                var67 = 6.132478632478629
        else:
            if input[6] <= 1.7649999856948853:
                var67 = 6.587379807692316
            else:
                var67 = 6.150710900473931
    else:
        if input[1] <= 90.64999771118164:
            if input[4] <= 122.5:
                var67 = 8.5
            else:
                var67 = 6.986666666666666
        else:
            var67 = 8.246153846153847
    if input[4] <= 157.5:
        if input[3] <= 167.5:
            if input[4] <= 138.5:
                var68 = 5.6893939393939394
            else:
                var68 = 6.41195652173913
        else:
            if input[9] <= 0.5:
                var68 = 6.56340852130326
            else:
                var68 = 6.876070528967252
    else:
        if input[5] <= 57.5:
            if input[2] <= 1.5049999952316284:
                var68 = 4.699999999999999
            else:
                var68 = 6.758400000000001
        else:
            if input[2] <= 1.8849999904632568:
                var68 = 5.960995850622403
            else:
                var68 = 6.845714285714285
    if input[4] <= 156.5:
        if input[7] <= 1381.5:
            if input[0] <= 38.5:
                var69 = 6.530679611650485
            else:
                var69 = 6.9369863013698625
        else:
            if input[5] <= 72.5:
                var69 = 5.997500000000001
            else:
                var69 = 7.426666666666666
    else:
        if input[7] <= 945.0:
            if input[6] <= 1.8300000429153442:
                var69 = 5.638281250000002
            else:
                var69 = 6.961290322580645
        else:
            if input[2] <= 1.5649999976158142:
                var69 = 5.543749999999999
            else:
                var69 = 6.6199115044247785
    if input[0] <= 32.5:
        if input[3] <= 175.5:
            if input[5] <= 59.5:
                var70 = 6.530612244897961
            else:
                var70 = 5.793706293706296
        else:
            if input[6] <= 1.1749999523162842:
                var70 = 6.923364485981309
            else:
                var70 = 6.339102564102565
    else:
        if input[8] <= 2.649999976158142:
            if input[1] <= 47.05000114440918:
                var70 = 7.640298507462686
            else:
                var70 = 6.695833333333334
        else:
            if input[1] <= 60.54999923706055:
                var70 = 6.1446540880503155
            else:
                var70 = 6.730042918454934
    if input[8] <= 2.649999976158142:
        if input[1] <= 84.75:
            if input[1] <= 70.4000015258789:
                var71 = 6.7669781931464215
            else:
                var71 = 6.216911764705882
        else:
            if input[1] <= 90.5999984741211:
                var71 = 7.605714285714285
            else:
                var71 = 6.791780821917809
    else:
        if input[3] <= 164.5:
            if input[6] <= 1.225000023841858:
                var71 = 4.904166666666667
            else:
                var71 = 6.164000000000001
        else:
            if input[7] <= 1765.0:
                var71 = 6.3798816568047405
            else:
                var71 = 7.373684210526315
    if input[2] <= 1.6050000190734863:
        if input[6] <= 1.5649999976158142:
            if input[0] <= 21.5:
                var72 = 7.473529411764707
            else:
                var72 = 6.259166666666667
        else:
            if input[5] <= 69.5:
                var72 = 6.990322580645162
            else:
                var72 = 7.903225806451615
    else:
        if input[11] <= 0.5:
            if input[3] <= 193.5:
                var72 = 6.226436781609195
            else:
                var72 = 6.761654135338347
        else:
            if input[6] <= 1.1850000023841858:
                var72 = 6.257894736842105
            else:
                var72 = 6.843835616438353
    if input[0] <= 56.5:
        if input[3] <= 193.5:
            if input[4] <= 132.5:
                var73 = 6.257954545454544
            else:
                var73 = 6.537325581395345
        else:
            if input[4] <= 126.5:
                var73 = 7.9
            else:
                var73 = 6.671511627906978
    else:
        if input[14] <= 0.5:
            if input[5] <= 59.0:
                var73 = 8.6
            else:
                var73 = 5.51875
        else:
            if input[2] <= 1.9200000166893005:
                var73 = 8.189473684210526
            else:
                var73 = 5.6
    if input[9] <= 0.5:
        if input[4] <= 157.5:
            if input[5] <= 60.5:
                var74 = 6.687081339712915
            else:
                var74 = 6.220000000000001
        else:
            if input[1] <= 51.89999961853027:
                var74 = 6.3882352941176475
            else:
                var74 = 5.761600000000001
    else:
        if input[1] <= 103.35000228881836:
            if input[8] <= 3.649999976158142:
                var74 = 6.643305785123972
            else:
                var74 = 5.809375
        else:
            if input[4] <= 133.0:
                var74 = 8.370000000000001
            else:
                var74 = 7.164864864864864
    if input[7] <= 1047.5:
        if input[11] <= 0.5:
            if input[7] <= 1030.5:
                var75 = 6.275045871559631
            else:
                var75 = 4.988888888888889
        else:
            if input[3] <= 169.0:
                var75 = 5.765384615384615
            else:
                var75 = 6.862068965517242
    else:
        if input[2] <= 1.9149999618530273:
            if input[7] <= 1391.5:
                var75 = 6.717705735660848
            else:
                var75 = 6.079661016949153
        else:
            if input[6] <= 1.0099999904632568:
                var75 = 5.7700000000000005
            else:
                var75 = 7.42878787878788
    if input[7] <= 1621.5:
        if input[3] <= 163.5:
            if input[13] <= 0.5:
                var76 = 5.583333333333335
            else:
                var76 = 6.511764705882352
        else:
            if input[7] <= 1369.5:
                var76 = 6.511447492904448
            else:
                var76 = 5.960550458715597
    else:
        if input[14] <= 0.5:
            if input[6] <= 1.550000011920929:
                var76 = 6.238235294117646
            else:
                var76 = 7.390909090909091
        else:
            if input[0] <= 19.0:
                var76 = 6.1
            else:
                var76 = 8.08695652173913
    if input[1] <= 121.5:
        if input[3] <= 167.5:
            if input[2] <= 1.8149999976158142:
                var77 = 5.943
            else:
                var77 = 6.882191780821919
        else:
            if input[1] <= 110.75:
                var77 = 6.580265654648959
            else:
                var77 = 5.115384615384615
    else:
        if input[4] <= 146.0:
            var77 = 6.916666666666668
        else:
            var77 = 8.192307692307692
    if input[3] <= 192.5:
        if input[4] <= 153.5:
            if input[6] <= 1.7949999570846558:
                var78 = 6.457894736842106
            else:
                var78 = 7.063709677419356
        else:
            if input[6] <= 1.4249999523162842:
                var78 = 6.347234042553188
            else:
                var78 = 5.858385093167704
    else:
        if input[0] <= 21.5:
            if input[6] <= 1.3100000023841858:
                var78 = 5.365384615384615
            else:
                var78 = 6.677419354838709
        else:
            if input[6] <= 1.8650000095367432:
                var78 = 7.143386243386245
            else:
                var78 = 6.307142857142857
    if input[7] <= 503.0:
        if input[7] <= 357.5:
            if input[6] <= 1.3399999737739563:
                var79 = 5.683333333333334
            else:
                var79 = 7.590000000000001
        else:
            if input[6] <= 1.875:
                var79 = 5.41
            else:
                var79 = 6.6421052631578945
    else:
        if input[1] <= 47.04999923706055:
            if input[5] <= 56.5:
                var79 = 7.0698113207547175
            else:
                var79 = 6.000581395348837
        else:
            if input[1] <= 73.35000228881836:
                var79 = 6.726621160409552
            else:
                var79 = 6.428941684665227
    if input[4] <= 154.5:
        if input[0] <= 20.5:
            if input[2] <= 1.534999966621399:
                var80 = 4.818181818181818
            else:
                var80 = 6.189583333333331
        else:
            if input[8] <= 3.649999976158142:
                var80 = 6.708428571428567
            else:
                var80 = 5.690909090909091
    else:
        if input[1] <= 48.5:
            if input[7] <= 1164.5:
                var80 = 5.479310344827585
            else:
                var80 = 6.313333333333333
        else:
            if input[6] <= 1.3049999475479126:
                var80 = 6.622023809523808
            else:
                var80 = 6.13008849557522
    if input[10] <= 0.5:
        if input[7] <= 621.5:
            if input[3] <= 197.5:
                var81 = 5.860493827160495
            else:
                var81 = 7.566666666666666
        else:
            if input[0] <= 27.5:
                var81 = 6.392708333333334
            else:
                var81 = 6.936065573770492
    else:
        if input[5] <= 59.5:
            if input[6] <= 0.7849999964237213:
                var81 = 8.52857142857143
            else:
                var81 = 6.509504132231402
        else:
            if input[2] <= 1.7450000047683716:
                var81 = 5.9008968609865455
            else:
                var81 = 6.380898876404493
    if input[3] <= 191.5:
        if input[7] <= 445.5:
            if input[0] <= 51.0:
                var82 = 8.135714285714286
            else:
                var82 = 5.966666666666666
        else:
            if input[7] <= 500.0:
                var82 = 5.342105263157895
            else:
                var82 = 6.496673189823872
    else:
        if input[1] <= 60.85000038146973:
            if input[2] <= 1.6749999523162842:
                var82 = 5.461904761904761
            else:
                var82 = 6.517333333333332
        else:
            if input[5] <= 52.5:
                var82 = 5.7941176470588225
            else:
                var82 = 7.198378378378381
    if input[7] <= 414.5:
        if input[6] <= 1.324999988079071:
            var83 = 6.525
        else:
            if input[1] <= 61.14999961853027:
                var83 = 7.2375
            else:
                var83 = 8.3
    else:
        if input[2] <= 1.7649999856948853:
            if input[4] <= 167.5:
                var83 = 6.28002812939521
            else:
                var83 = 6.793043478260869
        else:
            if input[3] <= 182.5:
                var83 = 6.81082089552239
            else:
                var83 = 6.3753138075313815
    if input[10] <= 0.5:
        if input[12] <= 0.5:
            if input[7] <= 454.0:
                var84 = 7.51875
            else:
                var84 = 6.472379032258061
        else:
            if input[4] <= 132.5:
                var84 = 6.147619047619046
            else:
                var84 = 7.3110344827586236
    else:
        if input[6] <= 1.9850000143051147:
            if input[2] <= 1.5750000476837158:
                var84 = 6.952380952380953
            else:
                var84 = 6.211299435028247
        else:
            if input[3] <= 194.5:
                var84 = 6.928205128205128
            else:
                var84 = 5.433333333333334
    if input[1] <= 48.5:
        if input[6] <= 1.9399999976158142:
            if input[13] <= 0.5:
                var85 = 6.187078651685393
            else:
                var85 = 5.264705882352942
        else:
            if input[7] <= 917.0:
                var85 = 7.757575757575758
            else:
                var85 = 6.056
    else:
        if input[3] <= 193.5:
            if input[1] <= 73.04999923706055:
                var85 = 6.677459016393439
            else:
                var85 = 6.347642679900747
        else:
            if input[1] <= 81.55000305175781:
                var85 = 6.800813008130081
            else:
                var85 = 7.622413793103448
    if input[3] <= 162.5:
        if input[0] <= 27.5:
            if input[7] <= 1384.0:
                var86 = 6.805
            else:
                var86 = 5.18
        else:
            if input[3] <= 160.5:
                var86 = 6.5636363636363635
            else:
                var86 = 5.305
    else:
        if input[7] <= 391.5:
            if input[4] <= 121.0:
                var86 = 5.0
            else:
                var86 = 7.947058823529413
        else:
            if input[6] <= 1.2050000429153442:
                var86 = 6.705109489051093
            else:
                var86 = 6.392614302461902
    if input[14] <= 0.5:
        if input[9] <= 0.5:
            if input[5] <= 64.5:
                var87 = 6.703819444444444
            else:
                var87 = 6.265199999999999
        else:
            if input[3] <= 163.5:
                var87 = 6.0181818181818185
            else:
                var87 = 6.885209713024284
    else:
        if input[6] <= 1.1950000524520874:
            if input[1] <= 40.70000076293945:
                var87 = 8.075000000000001
            else:
                var87 = 6.671844660194176
        else:
            if input[7] <= 1752.0:
                var87 = 5.982142857142859
            else:
                var87 = 8.657142857142857
    if input[4] <= 120.5:
        if input[1] <= 59.04999923706055:
            if input[2] <= 1.600000023841858:
                var88 = 6.3
            else:
                var88 = 4.573333333333333
        else:
            if input[7] <= 900.0:
                var88 = 5.2700000000000005
            else:
                var88 = 6.970000000000001
    else:
        if input[0] <= 46.5:
            if input[7] <= 446.5:
                var88 = 7.396428571428572
            else:
                var88 = 6.420535714285712
        else:
            if input[0] <= 51.5:
                var88 = 7.2419117647058835
            else:
                var88 = 6.437086092715233
    if input[7] <= 1743.5:
        if input[7] <= 1444.0:
            if input[4] <= 163.5:
                var89 = 6.5545918367347
            else:
                var89 = 6.1530172413793105
        else:
            if input[8] <= 2.049999952316284:
                var89 = 7.3076923076923075
            else:
                var89 = 5.713829787234042
    else:
        if input[8] <= 2.899999976158142:
            if input[7] <= 1767.0:
                var89 = 8.266666666666667
            else:
                var89 = 6.61764705882353
        else:
            if input[1] <= 53.54999923706055:
                var89 = 7.1000000000000005
            else:
                var89 = 8.541666666666666
    if input[7] <= 675.0:
        if input[8] <= 1.949999988079071:
            if input[4] <= 138.0:
                var90 = 4.544444444444445
            else:
                var90 = 6.0473684210526315
        else:
            if input[7] <= 658.5:
                var90 = 6.43658536585366
            else:
                var90 = 4.6625
    else:
        if input[7] <= 762.0:
            if input[4] <= 131.5:
                var90 = 6.207999999999999
            else:
                var90 = 7.099999999999999
        else:
            if input[9] <= 0.5:
                var90 = 6.308802816901405
            else:
                var90 = 6.618452380952382
    if input[4] <= 154.5:
        if input[3] <= 166.5:
            if input[4] <= 131.0:
                var91 = 5.232142857142856
            else:
                var91 = 6.2635593220339
        else:
            if input[7] <= 1370.0:
                var91 = 6.777597402597403
            else:
                var91 = 6.2407407407407405
    else:
        if input[6] <= 1.0950000286102295:
            if input[7] <= 777.5:
                var91 = 5.8736842105263145
            else:
                var91 = 7.118666666666666
        else:
            if input[7] <= 461.5:
                var91 = 7.675000000000002
            else:
                var91 = 6.035770234986948
    if input[4] <= 141.5:
        if input[5] <= 67.5:
            if input[7] <= 1146.5:
                var92 = 6.31761904761905
            else:
                var92 = 6.873275862068967
        else:
            if input[6] <= 0.6050000190734863:
                var92 = 4.62
            else:
                var92 = 6.9172794117647065
    else:
        if input[12] <= 0.5:
            if input[7] <= 1145.5:
                var92 = 6.119518716577544
            else:
                var92 = 6.52085106382979
        else:
            if input[8] <= 3.549999952316284:
                var92 = 6.943846153846155
            else:
                var92 = 5.58235294117647
    if input[3] <= 161.5:
        if input[2] <= 1.6050000190734863:
            var93 = 4.575
        else:
            if input[1] <= 46.75:
                var93 = 4.736363636363635
            else:
                var93 = 6.402439024390244
    else:
        if input[2] <= 1.6449999809265137:
            if input[4] <= 145.5:
                var93 = 7.1187919463087255
            else:
                var93 = 6.57701863354037
        else:
            if input[4] <= 166.5:
                var93 = 6.56374133949192
            else:
                var93 = 5.871428571428573
    if input[4] <= 154.5:
        if input[6] <= 1.3250000476837158:
            if input[7] <= 756.5:
                var94 = 7.0394736842105265
            else:
                var94 = 6.2276190476190445
        else:
            if input[6] <= 1.9550000429153442:
                var94 = 6.963172043010754
            else:
                var94 = 6.394444444444444
    else:
        if input[2] <= 1.9700000286102295:
            if input[7] <= 1774.5:
                var94 = 6.196073903002304
            else:
                var94 = 8.18
        else:
            if input[7] <= 1046.5:
                var94 = 5.93846153846154
            else:
                var94 = 7.8842105263157904
    if input[1] <= 46.85000038146973:
        if input[1] <= 46.04999923706055:
            if input[0] <= 21.5:
                var95 = 5.58888888888889
            else:
                var95 = 6.474390243902442
        else:
            if input[0] <= 19.5:
                var95 = 7.6
            else:
                var95 = 4.811764705882353
    else:
        if input[1] <= 75.25:
            if input[3] <= 186.5:
                var95 = 6.501190476190477
            else:
                var95 = 6.90816326530612
        else:
            if input[7] <= 624.5:
                var95 = 5.504878048780488
            else:
                var95 = 6.392326139088731
    if input[9] <= 0.5:
        if input[7] <= 489.5:
            if input[6] <= 0.8100000023841858:
                var96 = 8.5
            else:
                var96 = 5.251351351351351
        else:
            if input[4] <= 151.5:
                var96 = 6.464438502673795
            else:
                var96 = 6.0518518518518505
    else:
        if input[0] <= 18.5:
            if input[1] <= 71.4000015258789:
                var96 = 5.437931034482757
            else:
                var96 = 6.9192307692307695
        else:
            if input[3] <= 166.5:
                var96 = 6.125961538461539
            else:
                var96 = 6.785436893203881
    if input[9] <= 0.5:
        if input[8] <= 3.549999952316284:
            if input[1] <= 112.20000076293945:
                var97 = 6.2081218274111665
            else:
                var97 = 4.9941176470588236
        else:
            if input[8] <= 3.649999976158142:
                var97 = 7.592105263157895
            else:
                var97 = 5.835999999999999
    else:
        if input[3] <= 197.5:
            if input[7] <= 1725.0:
                var97 = 6.460322580645164
            else:
                var97 = 7.842105263157895
        else:
            if input[2] <= 1.6850000023841858:
                var97 = 8.05
            else:
                var97 = 6.705263157894737
    if input[4] <= 157.5:
        if input[3] <= 167.5:
            if input[4] <= 151.5:
                var98 = 5.993525179856114
            else:
                var98 = 6.844444444444445
        else:
            if input[6] <= 0.7350000143051147:
                var98 = 7.358333333333331
            else:
                var98 = 6.657583892617453
    else:
        if input[14] <= 0.5:
            if input[7] <= 461.5:
                var98 = 7.92857142857143
            else:
                var98 = 6.292763157894737
        else:
            if input[6] <= 1.3949999809265137:
                var98 = 6.451351351351351
            else:
                var98 = 5.409090909090909
    if input[3] <= 161.5:
        if input[1] <= 52.04999923706055:
            var99 = 4.7749999999999995
        else:
            if input[1] <= 61.89999961853027:
                var99 = 7.0
            else:
                var99 = 5.696875000000001
    else:
        if input[2] <= 1.6050000190734863:
            if input[1] <= 45.89999961853027:
                var99 = 5.87037037037037
            else:
                var99 = 6.96179775280899
        else:
            if input[5] <= 54.5:
                var99 = 6.751298701298703
            else:
                var99 = 6.3393459915611805
    if input[9] <= 0.5:
        if input[5] <= 59.5:
            if input[0] <= 49.5:
                var100 = 6.687553648068673
            else:
                var100 = 5.783333333333333
        else:
            if input[5] <= 70.5:
                var100 = 5.953424657534247
            else:
                var100 = 6.38830409356725
    else:
        if input[6] <= 1.6050000190734863:
            if input[4] <= 166.5:
                var100 = 6.852594339622642
            else:
                var100 = 6.0500000000000025
        else:
            if input[7] <= 1703.5:
                var100 = 6.192424242424242
            else:
                var100 = 8.0875
    return (var46 + var47 + var48 + var49 + var50 + var51 + var52 + var53 + var54 + var55 + var56 + var57 + var58 + var59 + var60 + var61 + var62 + var63 + var64 + var65 + var66 + var67 + var68 + var69 + var70 + var71 + var72 + var73 + var74 + var75 + var76 + var77 + var78 + var79 + var80 + var81 + var82 + var83 + var84 + var85 + var86 + var87 + var88 + var89 + var90 + var91 + var92 + var93 + var94 + var95 + var96 + var97 + var98 + var99 + var100) * 0.01
